4 784 16 16 10 
Weights: 
-0.441450 -0.162938 -0.980407 0.795099 0.481063 0.274148 0.499924 0.862728 -0.304117 -0.788385 0.751091 0.034272 0.410138 0.106540 -0.519822 0.266762 0.830866 -0.584155 -0.605762 0.517197 0.165014 0.596667 0.200293 0.742668 0.619678 0.105991 0.605335 -0.099887 -0.598193 -0.599170 0.316385 -0.053377 0.718619 0.938292 0.040559 -0.160802 -0.223060 0.175329 -0.515183 -0.465072 0.783929 -0.431074 -0.643788 -0.009247 0.946532 0.576281 -0.638234 -0.836238 0.471847 -0.345744 0.208594 0.011078 0.566820 0.260048 -0.396405 0.489547 -0.561449 0.850520 0.253883 -0.443709 0.294168 0.882809 -0.133518 -0.831660 -0.659536 0.813898 -0.851680 0.282754 -0.215308 0.100864 -0.193396 0.856563 -0.166234 -0.799371 0.548326 -0.153356 0.694815 -0.429609 -0.919675 -0.789789 0.574694 -0.332926 0.109897 -0.095676 0.680593 0.947813 -0.656117 -0.114170 -0.780572 -0.130589 -0.510605 0.111911 -0.601672 -0.110874 0.253456 0.539537 -0.575671 -0.536119 0.343120 0.125706 0.504440 0.050813 -0.534654 0.827570 0.845637 0.106784 0.327250 -0.397992 -0.345073 -0.911069 0.635853 0.406171 -0.860530 -0.545701 -0.901975 0.196997 0.506272 0.659963 -0.578967 0.931578 -0.037751 -0.837275 0.311869 -0.433088 0.714530 0.419904 -0.522629 0.060091 0.970153 0.888363 -0.375225 -0.631947 -0.063997 0.025178 0.461043 -0.552049 -0.180700 0.287332 0.693167 -0.743278 -0.172948 -0.868099 0.028169 0.751457 0.166173 -0.984069 -0.826838 0.889096 0.043794 -0.603504 -0.164830 -0.373333 -0.333110 0.730522 0.721183 -0.078646 0.242592 0.475082 -0.461776 -0.269936 -0.022248 -0.912778 0.993347 0.009857 0.079562 0.023957 0.793573 0.717826 0.754997 -0.257668 -0.354106 0.810907 -0.788995 -0.300699 -0.742546 0.246132 -0.345195 0.352092 0.335246 -0.019440 -0.706717 -0.842524 0.586230 -0.028779 0.333537 0.572741 0.717460 -0.824824 -0.017487 0.054659 0.435957 -0.450545 0.447371 0.060518 0.448836 0.051119 0.935057 0.047151 0.463057 0.637074 -0.347453 0.471725 -0.814386 0.264443 -0.193030 0.791192 0.323649 0.890255 -0.394635 -0.537461 0.584155 -0.528550 0.254677 -0.057100 -0.325907 -0.034761 -0.037996 0.689322 0.300577 -0.671560 -0.065584 -0.841304 0.170629 -0.481735 0.378826 -0.191809 -0.008820 -0.508286 0.502365 0.094760 -0.530625 -0.794305 0.512009 0.475509 -0.687735 -0.382611 -0.385174 0.407392 -0.773247 0.683767 0.017792 0.347453 -0.079989 -0.638234 0.928037 -0.247291 -0.901059 -0.391400 0.552477 -0.919736 -0.529344 0.381146 0.098178 -0.212867 0.742180 -0.363506 -0.227760 0.330302 -0.379498 0.331767 0.781671 0.166784 -0.187292 0.423811 -0.666616 -0.246315 0.025788 0.869808 0.634571 0.548021 -0.033174 -0.373333 0.892209 -0.993286 0.342753 -0.348491 -0.686758 0.586962 0.860714 0.901425 0.104831 -0.254311 0.227699 0.333293 0.473922 -0.060030 0.150670 -0.095798 0.627613 -0.373211 -0.663259 0.571215 -0.227210 0.263222 -0.507065 0.291299 0.116672 0.306314 -0.673757 0.021577 0.866268 -0.786981 0.543748 -0.280984 0.228431 -0.559557 -0.147557 0.340678 -0.589648 0.445601 0.959410 -0.156407 0.619068 0.685537 0.571581 -0.815241 -0.938475 -0.382794 0.396100 0.321268 0.944823 -0.302286 -0.860164 0.210059 -0.524094 0.384075 0.510056 0.808222 0.861934 0.133335 -0.786431 -0.927244 0.309793 0.402509 0.957640 0.960814 0.026643 -0.351421 0.449080 -0.570788 -0.780572 -0.671377 -0.605029 0.435224 0.095248 -0.100253 0.502426 0.935728 -0.138951 0.818903 -0.521653 0.887753 0.723991 0.543077 -0.970092 -0.751701 -0.109043 0.529405 0.864132 -0.025422 -0.430952 -0.765252 -0.312113 0.023408 0.965331 0.116367 -0.791681 -0.648061 0.286782 -0.368877 0.132542 0.917295 0.740410 -0.763848 0.167455 0.676260 0.533311 -0.611621 0.020112 -0.413984 0.872555 -0.455061 -0.602405 -0.396405 -0.035005 0.162816 -0.993164 -0.314005 -0.982177 0.699087 0.555040 -0.209693 0.238075 -0.389386 0.749138 0.873470 0.832759 0.354656 -0.703970 0.892575 -0.991272 -0.611927 0.903012 0.804682 -0.026704 0.168065 -0.723136 0.566698 -0.066683 -0.848567 -0.875240 -0.864254 0.095859 -0.204566 0.153722 0.468917 0.668020 0.556993 -0.929258 -0.476913 0.856746 0.893185 -0.417096 0.255470 0.869076 -0.739128 0.397198 -0.377056 -0.087985 -0.882687 -0.779351 -0.417402 0.192724 0.919492 0.760308 -0.908567 0.918149 0.124363 0.723197 0.106540 0.295267 -0.811090 -0.183630 -0.415082 -0.468856 -0.429670 -0.253212 -0.516404 0.832942 -0.274453 -0.778436 0.759636 -0.592578 -0.888363 -0.052278 -0.629994 -0.538133 0.185583 0.632252 0.271828 0.203284 0.404462 0.982177 -0.577990 -0.161473 0.225257 -0.295450 -0.222327 -0.425214 -0.894955 0.506455 -0.704215 -0.380963 -0.499130 0.094821 0.933531 -0.821650 0.869686 0.176794 0.647755 0.459700 -0.331400 -0.540757 -0.604480 0.670156 -0.645436 -0.350627 -0.866024 0.016694 0.384747 -0.545885 0.820124 -0.293619 0.215979 0.580615 0.410871 -0.053682 -0.694510 -0.264260 0.863338 -0.056551 -0.889828 0.626637 0.134556 -0.095187 0.087191 -0.039766 -0.818537 -0.962584 -0.306558 -0.556383 -0.038728 -0.451582 0.386029 -0.216102 -0.569079 0.644765 -0.378094 0.688040 -0.452620 0.533433 -0.141758 0.863033 -0.732231 0.421491 0.551988 0.015961 0.549120 0.516037 0.160131 0.853816 0.348369 0.023957 0.139744 -0.916379 0.622669 -0.847591 0.947935 -0.587512 0.328898 -0.891537 0.041597 -0.452559 -0.575793 0.099033 -0.122166 0.195471 0.865719 -0.668813 -0.086337 -0.936522 0.610218 -0.988037 0.606189 0.858821 -0.385113 0.348491 -0.587695 -0.711844 -0.163244 -0.452437 0.789178 -0.941221 0.232826 -0.183569 0.193701 -0.122349 0.760186 -0.637989 0.083041 0.451765 0.375713 -0.608631 -0.085849 0.488144 -0.963439 0.111606 0.144078 0.693899 -0.300150 0.729667 0.229835 0.775994 0.322428 -0.547472 0.628529 -0.558580 -0.138585 -0.512680 0.797113 0.397382 0.273843 -0.958922 -0.807428 0.350688 0.516709 -0.679189 -0.727958 -0.991516 0.547105 0.533555 -0.507431 -0.922117 -0.678030 -0.113742 -0.688894 0.265786 0.798456 -0.413923 -0.815302 -0.720756 -0.066561 0.839961 0.570421 -0.174657 0.684072 -0.145054 -0.074740 0.611072 0.007355 -0.161840 0.706290 -0.656606 -0.139683 0.996521 -0.629566 0.729545 -0.800043 0.537095 -0.625172 0.476363 -0.016572 0.666921 -0.823481 -0.709098 -0.832392 0.593066 0.232521 0.880367 0.709647 0.522446 0.999817 -0.048494 -0.433576 -0.337809 0.935423 0.211585 -0.304910 0.219337 0.496445 0.367534 0.052705 -0.599170 -0.860164 0.126438 0.596240 -0.586169 -0.677297 0.195288 0.282754 -0.534715 0.502060 0.281106 -0.930845 -0.237770 -0.865108 -0.909116 -0.087313 -0.488327 0.678335 0.331767 0.770257 0.920774 -0.410749 0.710746 0.598865 -0.803644 -0.675161 -0.065218 -0.644398 0.545640 0.342021 0.710990 -0.002533 0.175512 0.097873 0.746391 0.481552 0.293130 -0.950621 0.747917 -0.235145 0.105380 0.653737 0.422712 -0.195654 -0.180578 -0.632313 0.477767 -0.442854 0.642323 0.648549 0.620167 0.980285 0.780938 0.953185 -0.443159 -0.969359 -0.557604 -0.261330 0.994873 -0.334513 0.833796 -0.538011 -0.358684 -0.158361 0.162084 -0.419721 -0.796869 -0.483749 -0.365764 0.550523 0.387494 -0.353618 0.457442 -0.170263 0.901303 0.188940 0.838618 -0.125095 -0.548448 0.101047 -0.015229 0.143162 -0.254616 -0.660329 0.103061 -0.908567 0.489853 0.861934 0.400433 0.176916 -0.608142 0.624805 -0.916135 -0.143590 -0.841487 -0.414716 -0.639515 -0.412885 -0.503098 -0.299539 -0.562670 -0.173986 -0.886105 -0.072665 0.521409 0.030183 -0.283303 0.222938 0.819697 0.656545 0.012299 -0.455672 -0.460799 -0.837825 -0.292398 -0.151463 0.887143 0.004181 -0.490219 0.092563 0.070284 0.639576 -0.874203 0.233497 -0.704154 -0.474776 -0.737297 -0.771722 -0.229102 0.118381 -0.372478 -0.966002 
0.690725 0.349345 0.148228 -0.666433 0.264931 0.664785 -0.130711 -0.922300 -0.397443 -0.880245 -0.081637 -0.849239 -0.917356 -0.656911 -0.825800 -0.318339 0.084140 -0.036287 -0.484115 -0.200720 0.985778 0.610584 -0.177770 -0.367473 -0.833491 -0.087497 -0.027802 0.310404 -0.994690 -0.501511 0.844600 -0.038301 -0.118931 -0.002655 0.318400 -0.284646 0.172704 -0.961974 -0.727531 -0.299661 -0.740959 -0.750542 -0.414167 -0.954588 -0.480941 0.260598 0.137303 -0.120334 0.331645 0.700186 0.805719 -0.668142 0.075655 0.197241 0.470138 -0.468978 0.130100 -0.619373 -0.990722 -0.394024 0.873836 -0.120701 -0.697745 -0.314371 -0.314310 0.322184 -0.772149 0.898923 0.944761 0.338115 -0.335002 -0.625355 0.029756 0.556017 0.492599 0.241920 -0.680349 0.604785 0.589587 -0.370525 0.193396 -0.886654 -0.165197 0.666311 -0.970153 -0.289346 -0.892819 -0.518723 -0.792108 -0.974487 0.285684 -0.796747 -0.893490 0.686941 0.249184 -0.038728 0.104648 -0.676260 0.876583 0.884213 0.581042 0.564928 -0.953307 0.100803 -0.085299 -0.960753 0.638600 0.740165 0.484542 0.375774 0.531114 0.931089 -0.330607 -0.796686 0.603137 -0.197546 -0.151708 -0.849239 -0.266457 -0.516770 0.400006 0.847224 -0.198706 -0.897641 -0.296426 -0.078707 -0.314676 0.788751 -0.862239 -0.997986 -0.735527 -0.328837 -0.918455 -0.281594 -0.582324 -0.121311 0.913938 0.699271 0.023835 0.540086 -0.986389 -0.426496 -0.038118 -0.215674 0.759697 0.970031 -0.889340 0.740410 0.530992 0.517747 0.349162 -0.462996 -0.293619 0.845576 -0.443770 -0.696768 0.664846 -0.417585 -0.389264 0.167943 0.785211 -0.642872 0.391705 -0.740043 0.446455 -0.201270 0.777947 0.708304 -0.972655 -0.463973 0.648427 -0.358196 0.907041 0.197974 0.881954 0.189428 -0.535752 0.413495 -0.642506 -0.520005 -0.922117 -0.188574 0.954039 -0.357463 -0.873043 -0.979308 -0.449629 -0.194189 -0.009674 -0.329752 0.025422 0.098849 -0.953185 0.389019 0.258156 -0.349467 0.675527 0.805841 -0.872616 0.589709 0.255104 -0.450423 0.512192 0.045320 0.164708 0.249245 -0.708792 0.146275 -0.216956 -0.466292 -0.656423 0.021455 -0.510910 -0.968139 -0.451827 -0.200232 0.661855 -0.627369 -0.216224 0.610218 -0.319926 0.184912 0.929441 0.581591 -0.077242 0.097629 0.863887 0.842830 -0.231178 0.739616 0.466231 -0.477157 0.597156 0.739860 -0.384808 -0.249489 0.786615 -0.272744 -0.810175 -0.345195 -0.283914 0.330668 -0.931028 0.364666 -0.235389 0.179052 0.131565 0.008820 0.310953 -0.098727 0.256447 -0.283670 -0.265908 -0.873714 0.322611 -0.383953 -0.587024 0.482955 0.208899 0.836909 -0.273598 -0.399823 0.794244 -0.492294 0.053377 -0.893124 -0.042512 0.757561 0.772759 0.632008 0.577685 0.715201 -0.736625 0.804437 0.533616 0.509568 -0.095676 -0.747002 0.704215 0.269631 0.074313 0.606738 0.968383 -0.875851 0.152379 0.494430 0.205054 -0.797784 -0.482589 -0.454939 0.293130 -0.367290 0.548265 -0.612476 0.111484 0.544420 0.623890 0.650746 -0.460982 -0.933714 0.123142 0.963561 -0.545274 -0.672720 0.424970 0.954955 -0.262551 0.456282 -0.091708 0.253761 -0.733940 0.582141 -0.048006 -0.511093 -0.080416 0.833857 0.934996 0.289346 0.576769 -0.659780 0.236122 -0.716056 -0.883419 -0.769768 0.234352 0.101596 0.418012 0.632862 0.308634 -0.628712 0.359905 0.676870 0.837825 0.721854 -0.178930 -0.508835 -0.799188 0.782159 0.680593 0.204749 -0.223487 -0.818842 -0.182775 0.946471 -0.056124 0.547838 -0.890011 0.845271 0.081759 0.511032 -0.562304 0.030000 -0.430952 -0.300455 0.679373 -0.370403 0.784783 -0.257546 -0.286233 -0.226966 -0.892392 -0.731437 0.419965 -0.410932 0.916746 -0.093112 -0.323344 -0.793268 -0.409101 0.286172 -0.637074 -0.245094 -0.491012 0.035432 0.357707 -0.637501 0.050020 -0.216468 0.539720 -0.841609 -0.407208 -0.840632 0.788018 -0.728507 -0.483749 0.791986 0.981384 0.830744 0.199377 0.310099 -0.001129 -0.035066 -0.979064 0.342692 -0.280740 -0.196875 0.359966 0.518662 -0.978454 0.474166 -0.404767 -0.533067 -0.215369 -0.893124 -0.894284 0.816462 0.887387 -0.169652 0.270425 -0.804010 0.208655 -0.226722 -0.531907 0.234596 0.627491 -0.935301 0.077792 0.561144 0.022675 0.833552 0.478256 -0.195532 -0.726859 -0.791375 0.048494 0.593554 0.257851 -0.681082 -0.832636 0.557237 -0.144322 -0.706717 -0.786187 0.324503 -0.054476 0.260659 0.566820 -0.475875 -0.593738 0.349895 0.605090 0.785211 0.116855 0.689993 -0.292337 -0.263466 0.956236 -0.590258 -0.746513 -0.993042 -0.196814 -0.361858 -0.378643 0.225562 -0.463301 -0.495895 0.190283 0.021088 0.035676 0.136448 -0.660939 0.022553 0.179052 -0.335856 0.446699 0.858760 -0.154332 -0.783929 -0.107944 0.158666 -0.085543 0.921262 -0.945982 0.551195 0.264321 -0.091586 0.311563 -0.334819 -0.225806 0.306558 -0.956542 0.129673 0.322977 -0.755486 -0.371258 -0.426557 0.789544 0.851314 -0.553697 0.625477 -0.947203 0.255776 0.875057 0.914609 -0.008332 -0.413190 -0.706168 -0.930235 -0.514939 -0.026643 -0.918455 0.719962 0.411908 -0.455672 -0.382794 0.493942 0.651112 -0.571459 -0.720389 0.020661 -0.918577 -0.244972 -0.552293 -0.070894 -0.418012 -0.347331 0.500473 -0.151891 -0.968444 -0.749748 -0.183386 0.406598 -0.690847 -0.323160 -0.224769 -0.766594 -0.706473 -0.938780 -0.244789 0.957640 0.863765 0.532395 0.135350 -0.792108 0.898618 0.219153 0.294656 0.613453 -0.722953 -0.749504 0.611988 0.802911 0.878048 -0.244667 0.466231 0.405255 -0.419721 0.862545 0.236366 -0.950560 0.262978 0.701041 -0.698782 -0.635609 0.804804 0.399640 0.039766 0.979064 0.084750 0.087374 -0.169164 0.522141 -0.018281 0.893185 -0.946654 -0.377300 -0.625416 0.945799 -0.913694 0.909665 0.142308 -0.625782 0.308573 0.011872 -0.836238 0.307413 0.099033 -0.441816 0.317911 0.874203 0.836543 -0.822382 0.483566 -0.796564 -0.099948 -0.500961 -0.460372 0.424238 -0.331523 0.151341 0.365154 0.665334 -0.479293 -0.236549 0.838923 -0.944395 -0.164281 -0.035737 -0.160192 -0.275857 -0.007721 -0.617359 -0.753227 -0.200354 0.369427 -0.352458 -0.061190 -0.588855 0.346049 -0.612110 -0.205298 -0.312418 0.300943 0.232582 -0.306619 0.757744 -0.386883 0.810480 -0.486251 -0.249428 0.661489 0.750481 0.134800 0.795038 0.824885 0.681570 -0.564684 -0.980102 0.482284 0.232582 0.294290 0.554247 -0.987487 0.032441 0.590564 0.526902 0.794610 -0.289956 -0.796930 -0.933287 -0.792718 -0.105625 0.010773 -0.697317 0.629627 0.214209 -0.107517 -0.636280 0.440474 -0.701468 0.727226 0.378643 -0.981323 0.776360 -0.606311 0.476424 -0.256691 -0.723685 -0.228980 0.786004 0.993103 0.427595 0.738029 -0.563890 0.147008 0.858943 0.173620 -0.444136 -0.416059 0.199316 0.956664 -0.725944 0.682852 -0.922483 0.966124 -0.280374 -0.177404 -0.877377 -0.919187 -0.978576 0.382061 0.963500 -0.820185 0.308512 0.740226 0.228980 0.141881 -0.290384 0.275979 -0.452071 -0.154027 0.353740 -0.631886 0.549425 -0.829035 0.369793 -0.604297 -0.137791 -0.004120 0.886654 0.737602 -0.884762 -0.800531 0.033113 0.772637 0.937559 0.660695 0.938353 -0.120212 0.957884 -0.741508 -0.269021 -0.562059 -0.194861 0.871761 -0.459883 -0.173986 -0.891720 0.379376 0.494613 0.422895 -0.503708 -0.339763 -0.276711 -0.392560 0.598010 -0.406720 -0.644826 0.758721 -0.957762 0.057405 0.519089 0.255470 0.458052 -0.068453 -0.656056 -0.523301 -0.525742 -0.905454 0.958739 0.801263 -0.280251 0.425398 -0.507736 -0.391949 -0.176428 -0.197119 0.073519 0.276040 -0.585559 0.106052 0.831355 0.184057 -0.878658 -0.786309 0.894650 -0.288919 0.573290 0.004791 0.392315 0.235939 0.399030 0.358196 0.453352 0.137608 0.227577 -0.847163 -0.793451 0.795038 0.687735 0.267678 -0.219092 0.586962 -0.591540 0.581530 0.305338 0.892453 -0.981323 -0.026704 -0.091403 0.090304 -0.852657 -0.678030 0.719779 
-0.118686 -0.373699 -0.607227 0.504746 0.946409 0.612110 0.556322 0.243690 0.799127 0.257485 0.814020 0.073946 0.302713 -0.324137 -0.470748 -0.391217 -0.679556 0.980590 -0.934629 -0.538499 0.715751 -0.715323 0.785577 -0.754570 0.351665 0.701712 -0.946898 -0.426191 -0.908383 0.344768 -0.768670 0.059908 0.798944 0.327189 -0.316507 -0.683035 0.336833 -0.237709 -0.227088 0.958434 -0.431501 0.763298 -0.137181 -0.402631 -0.642628 0.443525 -0.683523 0.847224 -0.433271 0.916318 0.497238 -0.678884 -0.940306 -0.705252 0.768365 0.632557 -0.300272 -0.307657 0.493088 -0.605396 0.350017 -0.777764 -0.965331 -0.779351 0.873836 -0.002228 0.756523 0.723991 0.134434 -0.867794 -0.978271 -0.482162 -0.004791 0.738823 0.193823 0.215552 -0.680654 -0.069124 -0.364116 0.430342 -0.029817 0.821772 -0.288675 0.775506 0.810968 0.524583 -0.216712 0.864376 -0.295022 -0.847285 0.215186 -0.689871 -0.484481 -0.180517 0.370220 -0.273843 0.105869 0.638112 0.611682 0.725700 0.339335 0.721854 0.302896 -0.077975 0.079073 0.184057 -0.192907 -0.071566 0.188513 0.137974 0.487594 0.358196 0.530869 0.696890 0.707633 -0.175451 -0.030549 0.974120 -0.169469 -0.059114 0.367473 -0.917173 0.219520 -0.679617 0.588305 0.136448 -0.762078 -0.423627 0.495224 0.248146 -0.750908 -0.677908 0.951415 0.531236 -0.383831 0.170934 -0.179785 -0.900998 0.702567 0.736076 -0.035066 -0.935240 -0.128574 0.630787 -0.751213 0.541795 -0.513901 0.468368 0.535142 0.643361 0.909970 -0.137852 -0.312784 -0.517319 0.506149 -0.574633 -0.431684 0.173132 -0.362041 0.771355 0.041719 0.827937 0.668752 0.513291 -0.029328 0.560350 0.961791 0.264565 -0.781487 -0.516282 0.880245 0.638356 0.648549 0.711356 -0.212439 -0.751946 0.123936 0.356426 0.046907 0.706900 0.508103 -0.467696 -0.978454 0.628162 -0.335856 0.352214 -0.925108 -0.374981 0.455550 -0.070528 -0.429853 -0.689016 0.745476 0.377422 0.870663 0.299173 -0.602771 0.809198 0.339518 0.202918 0.274087 -0.661855 0.340190 -0.364605 0.239357 -0.922422 0.235878 0.210120 -0.843684 0.140782 0.389874 0.540147 -0.111789 -0.358989 0.165502 0.238807 0.298379 -0.308512 -0.074007 -0.080538 -0.749992 -0.594409 -0.965392 -0.804682 0.606494 0.896664 -0.145299 0.679800 -0.769036 -0.722282 -0.250465 -0.014069 0.986938 0.662343 -0.917722 -0.272805 0.737480 0.163610 -0.783624 -0.483200 0.345927 -0.105136 0.515122 -0.031892 0.675588 0.969481 0.341594 0.694266 -0.410260 -0.499496 -0.940794 0.308634 -0.048311 0.601489 0.031281 0.424482 -0.375347 0.385601 -0.379009 -0.344890 -0.528001 -0.033967 -0.808283 -0.386273 -0.643117 -0.543809 -0.893307 0.913755 0.142735 -0.030671 0.729240 -0.831721 -0.307291 -0.381329 0.422529 0.990844 0.870235 -0.482467 -0.450056 -0.005585 -0.461592 -0.220740 0.474715 0.792535 0.560595 -0.482955 0.560228 0.998352 -0.199866 0.844234 0.169591 -0.774834 0.120212 0.874081 0.666189 -0.913755 -0.615833 -0.280190 0.413312 -0.805048 0.455306 0.494797 0.774224 -0.835505 -0.803217 -0.687796 0.112217 -0.391766 0.472030 -0.714591 -0.209510 0.139317 0.144261 0.527757 0.172460 -0.628895 -0.923276 0.152379 0.621326 0.916929 -0.867244 0.272622 -0.499680 -0.610034 -0.824396 0.001801 0.172887 0.403546 -0.931394 -0.546861 -0.997864 0.570971 -0.324992 -0.260048 -0.648549 -0.494552 0.858089 0.975524 -0.415937 -0.179601 -0.518906 0.273049 -0.936766 -0.871090 -0.592700 -0.254067 0.152379 0.044465 -0.499924 0.507431 0.214637 0.180212 -0.377361 0.670766 -0.386639 0.149449 0.638356 -0.650746 -0.288247 -0.434492 0.410382 0.656240 0.873226 -0.958373 -0.198035 -0.295206 0.460921 0.191137 0.676626 0.608509 0.838191 -0.372784 -0.102634 0.480392 -0.631703 0.963317 -0.672353 -0.566149 0.414594 0.812555 -0.169286 0.582202 -0.659780 0.788263 -0.730216 0.038606 0.508591 -0.496323 0.508225 0.916501 -0.717093 0.572253 -0.590747 -0.671072 0.026460 0.607105 0.836238 0.389447 0.102573 -0.778497 0.652333 0.211219 -0.125462 -0.971191 -0.279153 -0.092563 0.705557 -0.357646 -0.094821 -0.408490 0.958983 -0.324686 0.068514 0.376690 -0.001984 0.741020 0.074129 0.376202 0.186010 -0.547349 0.785394 0.703421 0.886288 -0.576342 0.065401 -0.528550 0.462020 -0.732780 0.777642 -0.206214 0.276528 0.596667 0.785272 -0.216346 0.693106 0.025178 0.951659 0.554247 -0.924986 -0.833857 -0.860042 0.218909 -0.214393 0.632862 0.213599 -0.109104 0.188086 0.038484 0.035737 -0.316507 0.645741 -0.003632 -0.530320 0.710074 0.521836 0.119846 0.378826 -0.916318 0.179724 -0.977905 -0.373699 -0.082125 0.982665 0.316507 -0.924558 -0.674245 -0.706107 0.616260 -0.410443 0.420759 0.476730 -0.465316 -0.968078 -0.684011 0.894467 -0.314920 0.265847 -0.875179 -0.089694 0.680715 -0.845515 -0.039460 -0.112400 -0.865230 0.561327 0.936399 0.189673 0.660756 0.349406 0.165685 -0.820307 -0.128269 -0.617847 0.761711 0.221046 0.381085 -0.477157 0.837703 -0.323099 0.802057 -0.365215 -0.493027 0.910703 0.747978 -0.418867 0.882870 0.285501 0.832087 0.225318 0.078524 -0.835261 0.667653 -0.569445 -0.792718 -0.088229 0.867977 0.060091 -0.617542 -0.110324 -0.953673 -0.022736 0.717399 -0.538133 -0.183935 0.045320 0.325236 -0.008393 0.790399 0.127537 0.319315 -0.157872 0.582568 -0.912839 -0.187048 0.376812 0.805963 0.787652 0.919431 -0.041169 0.073763 0.092074 0.751946 -0.048494 -0.000702 0.863826 -0.576220 0.718131 -0.804193 -0.033906 0.048311 -0.378033 -0.723319 -0.737724 0.738823 -0.973754 0.855098 -0.384381 0.608509 0.294473 -0.455611 0.889401 -0.229347 -0.210364 -0.042207 -0.053133 -0.661367 0.875179 -0.291360 0.651296 -0.574389 -0.085665 -0.589892 -0.134007 -0.855037 0.270425 0.675710 -0.545763 0.610034 0.306742 0.118442 0.279397 0.933897 -0.613575 -0.648244 0.204566 0.229957 -0.127049 0.988891 0.093173 -0.388531 -0.870540 0.643117 -0.191504 -0.808283 -0.480697 0.927793 0.213721 0.084078 0.405805 -0.543992 -0.827815 0.401654 0.152135 0.841304 -0.452803 -0.742180 0.121616 0.696768 -0.798029 0.765984 0.677541 -0.364238 0.999878 0.039155 -0.816889 -0.728507 0.804132 -0.809198 0.001801 0.217383 -0.522019 -0.665822 0.496750 0.086581 0.884823 0.582568 -0.968749 -0.507553 -0.112217 0.049226 0.968627 0.048189 0.350322 -0.152623 0.672109 0.367168 -0.864437 -0.909604 -0.495041 0.062593 0.106906 -0.108371 -0.169469 -0.252174 0.127598 -0.635853 -0.987915 -0.963988 -0.939207 -0.378582 -0.587085 0.540635 -0.230018 -0.223365 0.396283 -0.125217 0.118320 -0.056917 0.325419 -0.348125 0.969176 -0.765984 0.563707 -0.514939 0.185644 -0.237159 -0.525742 -0.012238 0.631214 0.642750 0.420576 0.773186 0.169103 -0.013031 -0.234169 0.454634 -0.337504 0.908933 0.873287 0.645314 0.974853 -0.478256 0.106235 -0.041414 0.969298 0.938841 0.827998 0.007721 -0.490890 -0.726676 -0.598254 -0.593982 -0.542344 -0.361370 -0.809076 -0.233314 0.678274 0.148045 0.558763 -0.296915 0.034089 -0.085238 0.868465 0.828486 -0.611560 -0.947935 0.483322 -0.243873 -0.395367 0.673391 0.766717 0.099277 0.546007 0.891842 0.081820 0.471297 -0.924314 0.820734 -0.208045 0.485397 -0.942930 0.573351 0.260414 0.754936 -0.646535 -0.737053 0.850459 0.893063 -0.171972 -0.997070 -0.074618 -0.486862 -0.655873 0.906552 0.848506 0.228492 -0.234962 -0.913083 -0.016938 -0.347697 -0.045930 0.657582 0.692312 -0.602039 -0.225562 -0.268471 -0.660451 0.078707 0.089389 -0.577746 -0.711905 -0.692251 0.762383 -0.156957 0.901242 -0.301553 0.656484 0.107028 -0.457808 0.864132 -0.364910 0.327616 -0.425703 -0.582080 0.561510 -0.382000 0.360820 0.973266 -0.701102 0.091525 0.264992 0.143284 0.710685 0.861507 0.650197 0.541429 0.660085 0.041047 -0.120457 0.780877 0.010346 0.743645 -0.683523 0.474899 
0.938169 0.931211 0.532762 0.583178 -0.057588 -0.260109 -0.375408 0.015107 0.349406 -0.664907 -0.800653 -0.061312 -0.430586 0.377117 -0.832881 -0.485885 0.012482 0.526048 0.438093 0.901547 -0.911191 0.441939 0.922361 -0.739006 -0.791437 -0.214942 -0.469893 0.752861 -0.218116 -0.784478 0.171484 0.537034 -0.781060 0.393536 -0.243263 0.773858 0.929868 -0.020783 0.195898 0.623402 -0.675222 -0.367290 0.399152 0.245888 -0.186071 0.014191 0.276711 0.801386 0.807489 0.783807 0.738701 0.450117 -0.284524 0.601672 -0.304727 0.352214 0.948180 -0.872005 0.056551 0.667898 -0.084384 -0.977050 -0.267251 0.557237 -0.971984 -0.053255 -0.366008 0.180334 -0.304361 0.559374 -0.329508 0.697562 0.328532 0.521104 0.752312 0.268838 0.336833 0.492050 0.789666 0.054476 0.130772 0.132359 0.692679 0.214576 -0.879635 0.102268 0.371502 -0.090732 -0.284036 0.061861 0.736381 -0.701285 -0.672353 0.671316 -0.302652 -0.456832 0.365520 -0.409284 0.164647 0.802728 0.239784 -0.519700 0.048372 0.237465 -0.639454 0.000275 0.258766 0.007599 -0.861995 -0.189306 0.705924 -0.726676 -0.017670 0.571764 0.299966 0.194800 -0.696341 0.943663 0.951109 -0.067904 -0.487838 0.586474 -0.430525 0.645436 0.017975 0.160375 0.065279 -0.505051 -0.768731 -0.674490 -0.651418 0.640858 0.562243 0.742180 -0.670400 -0.756829 0.420942 0.070284 0.918577 -0.537767 0.217566 -0.029817 0.025483 0.458052 0.362285 0.102023 -0.439436 0.390851 0.265297 -0.874203 -0.566027 0.420759 0.336711 0.701895 0.555956 0.707999 -0.013337 -0.509751 0.836482 0.412580 -0.374615 -0.848872 -0.814142 -0.305216 0.662954 0.344768 -0.485824 -0.285257 -0.490463 0.731193 0.731620 0.632679 -0.424665 0.970580 0.748344 -0.391461 -0.729484 0.723075 0.474471 0.802728 0.005219 0.648854 -0.179785 -0.624805 0.189550 0.408124 -0.304361 -0.513718 -0.766350 0.661000 0.011017 0.296060 -0.452254 -0.932371 -0.323588 -0.035432 0.542039 0.288186 0.602100 -0.347819 0.626576 -0.017182 -0.301981 -0.481124 -0.788507 0.811701 0.874569 0.724967 0.707144 0.434919 -0.958312 -0.569567 0.523423 -0.487289 0.109775 0.795587 -0.929380 -0.294778 0.988769 0.980468 -0.241005 -0.327433 -0.411115 -0.854732 0.998535 -0.925108 0.820368 -0.549791 0.199438 0.572436 0.593249 -0.944639 -0.228126 -0.174718 -0.182226 0.120945 -0.874020 -0.506394 0.404096 -0.192907 0.671987 -0.762444 -0.737724 0.273965 -0.180029 -0.282632 0.302591 0.681692 0.980163 0.593127 0.435163 -0.809626 -0.437422 0.524949 -0.429914 0.960387 -0.022431 -0.827021 0.617603 0.151646 -0.364849 -0.802484 -0.512253 -0.075594 0.945555 0.258583 -0.909177 0.438887 -0.681204 -0.983642 -0.663076 0.855098 -0.834834 -0.868892 -0.863826 -0.666738 -0.105136 -0.737175 0.398785 -0.966430 -0.082064 -0.928220 0.034883 0.116245 0.644581 -0.781915 -0.045442 -0.258766 0.484970 -0.638112 -0.931883 0.068880 0.849178 0.163427 -0.714408 0.259255 0.147435 -0.717277 -0.482772 0.472579 -0.210059 -0.619984 -0.326945 -0.131138 0.186743 0.115452 0.663381 0.608448 0.748100 0.149205 0.398297 -0.148595 -0.115940 -0.858699 -0.212134 -0.242164 -0.995178 -0.247902 0.742424 -0.512009 0.520615 -0.358318 0.171972 -0.798090 -0.158483 -0.529893 -0.013215 0.059969 -0.622303 0.897702 -0.903134 0.222083 0.539354 0.584460 -0.587451 0.848567 -0.263405 0.190588 -0.156102 0.099460 0.379559 0.376324 0.301126 -0.865047 0.878475 0.801752 -0.305765 0.115268 0.643483 0.126988 -0.066439 0.200537 0.084628 0.012238 -0.070833 -0.449141 0.612232 -0.882382 -0.408795 -0.673574 0.636341 -0.896603 -0.170080 -0.312601 -0.432905 0.629688 0.555406 -0.206030 -0.185217 -0.643422 0.677786 -0.193762 0.789422 -0.055757 0.107212 0.884396 0.901242 0.052889 -0.246071 -0.811518 -0.439680 0.342631 -0.471969 -0.121128 -0.823054 0.473617 0.339702 -0.884457 -0.838801 -0.893979 0.099033 0.058748 -0.076754 -0.100009 -0.283731 0.868648 0.873226 -0.484298 -0.898495 0.705252 0.421247 -0.386639 -0.835078 -0.271157 -0.022431 0.853023 -0.183325 -0.900449 -0.047700 0.894894 -0.033052 0.977660 -0.244423 0.399091 -0.474166 0.523057 -0.202368 -0.974242 -0.596484 -0.103916 -0.511521 -0.564806 -0.489853 0.256874 -0.761589 -0.712577 0.755974 -0.234413 0.457625 -0.757378 -0.949095 -0.417707 -0.443953 0.960997 -0.694632 -0.132725 -0.055940 -0.897397 -0.570544 -0.219337 0.031709 -0.672353 0.333232 -0.517502 -0.770867 0.296365 -0.073092 0.133091 -0.053438 -0.331156 -0.879391 -0.107517 -0.405866 0.105197 -0.175390 -0.079134 0.582018 -0.734367 0.948912 0.378399 0.320292 -0.189673 0.403729 0.425275 -0.780816 -0.600635 -0.900815 0.221595 0.688894 0.693045 0.945616 0.927549 -0.860652 -0.648671 0.852901 0.703238 -0.018952 0.034516 0.731376 0.708914 -0.376141 0.402692 -0.508896 -0.895383 -0.521897 -0.884030 -0.957701 -0.949400 -0.046113 -0.165319 0.295206 0.707022 0.461348 -0.781182 -0.840205 -0.766045 -0.589343 0.928709 0.546373 0.791681 0.211951 -0.375774 0.364971 0.540208 -0.724601 0.965819 -0.474166 0.639760 0.011200 -0.386578 -0.060884 0.250526 0.829524 -0.772698 0.514939 -0.467391 -0.859615 0.467696 -0.836604 -0.353801 -0.645924 0.994568 0.794855 0.751518 0.880734 -0.531785 -0.680776 0.008515 0.130406 -0.451277 -0.353191 -0.422468 0.513413 -0.103732 -0.312296 0.618702 0.439802 0.171056 0.352153 -0.707877 -0.680288 -0.966857 -0.449812 0.757988 -0.436567 0.142796 0.192053 -0.823603 0.580981 0.160131 0.187841 -0.292398 0.782586 0.745293 0.447798 0.511765 -0.421613 0.558397 0.881954 0.748955 -0.621509 -0.740410 0.400616 0.579272 -0.406842 -0.490829 0.913816 -0.836970 0.632496 0.967162 -0.668325 0.660329 -0.093417 0.293741 -0.435469 0.231300 -0.174352 -0.850887 0.522446 0.036103 -0.200110 0.193396 0.115574 -0.765130 0.239418 -0.913266 -0.746025 -0.012177 0.554369 0.489364 -0.152013 -0.544908 -0.845088 0.061312 0.807672 -0.203162 -0.548753 0.462874 0.043184 0.173193 -0.146519 -0.645924 0.464644 0.744316 -0.228248 -0.604846 -0.017731 0.670400 -0.383770 0.246254 -0.493820 0.111545 0.797174 0.567492 0.946593 0.227943 -0.275430 0.019074 -0.786431 -0.820307 -0.191321 -0.738884 0.217383 0.127110 -0.540330 -0.046113 0.868099 -0.769829 0.087619 0.757378 -0.924192 -0.350871 0.102756 -0.668203 -0.249123 -0.455855 0.915220 0.337382 0.803339 0.075289 0.935179 -0.565844 -0.856746 -0.597217 -0.427290 -0.717582 0.680960 0.686819 -0.761956 -0.457747 0.326518 0.087497 -0.658681 0.873836 -0.009919 0.764946 0.292703 0.937254 0.581835 0.879391 -0.497665 0.392682 0.011872 -0.409101 -0.619617 0.900388 -0.809565 -0.940245 -0.663015 -0.879635 0.027680 0.446028 -0.217627 0.712943 -0.566332 -0.090121 0.126560 0.338176 -0.681387 0.611499 0.779839 -0.343791 0.592761 0.711051 -0.847713 -0.672781 -0.833979 -0.631397 -0.345927 -0.988647 -0.051119 0.744377 -0.304605 -0.631153 0.851253 -0.001434 -0.313639 0.059725 0.783319 -0.708792 -0.962889 -0.255776 -0.344707 -0.217383 0.157872 0.082553 0.377361 -0.367168 0.458785 -0.265297 0.859676 0.002045 0.349956 0.361003 0.012238 -0.949644 -0.758477 0.621509 -0.254616 -0.061922 -0.456221 0.176366 0.969237 0.825251 0.666799 -0.314188 -0.406110 0.872005 -0.979369 0.809992 0.529527 0.238502 0.015595 0.208960 -0.313700 0.084994 0.061739 -0.457076 -0.025605 0.571581 0.569323 -0.527879 -0.696036 0.858394 -0.051607 -0.343425 0.585131 -0.894467 -0.390851 0.756584 -0.271950 0.473373 -0.038179 0.432234 -0.357097 -0.878170 0.416425 -0.656423 0.239845 0.211219 -0.616810 -0.849055 0.429060 -0.098361 0.272378 0.514451 0.120640 -0.646840 -0.506088 -0.905881 0.224769 0.726127 0.458174 -0.449690 0.651601 -0.819514 -0.424848 -0.456954 0.311319 0.876644 0.255104 -0.267495 -0.885983 0.974487 
-0.287210 -0.122532 -0.801935 0.716056 -0.586047 -0.533921 -0.512070 -0.213599 -0.390118 0.398175 -0.967711 -0.915036 0.070162 0.693167 0.100803 -0.868770 -0.435835 -0.629444 -0.037202 -0.555284 -0.138401 0.449995 0.887997 0.545030 -0.268105 0.950987 0.145848 -0.048433 0.944700 0.893002 0.005829 0.183935 0.269326 -0.704459 -0.262429 0.761650 -0.524522 0.178320 -0.389447 0.204260 -0.667348 0.560656 0.894345 0.031220 -0.389630 0.462203 -0.141636 0.762200 -0.921812 0.902463 -0.227699 -0.083346 -0.494369 -0.099033 0.905637 0.014069 -0.337809 0.477218 0.527818 0.574084 -0.682608 0.650807 0.908506 0.116123 -0.759148 -0.558824 -0.682913 0.159764 -0.797967 0.868038 0.023225 -0.775445 -0.029511 -0.049348 0.296365 0.830073 -0.684317 0.708792 0.406049 -0.504318 0.007294 0.161901 -0.378155 0.741081 -0.185278 0.329447 0.213294 -0.914365 -0.492477 0.231056 -0.550157 0.049104 0.855281 -0.113865 -0.398846 0.150853 0.627491 0.314432 -0.063387 0.910520 0.593616 -0.464766 0.725883 0.847468 -0.476669 0.568285 -0.761650 -0.518662 -0.813959 -0.567064 -0.256264 -0.668325 0.351360 -0.851192 -0.488571 -0.082003 0.788812 -0.264565 0.811029 -0.240150 -0.732170 0.212378 0.911985 0.376690 -0.441877 0.599109 0.083834 0.288125 0.429060 -0.084872 -0.403790 -0.986328 -0.349773 0.180029 -0.281411 -0.927183 -0.008820 0.413373 -0.279519 -0.014801 -0.778558 0.634632 -0.128513 0.270241 0.110508 -0.136692 -0.559008 -0.552538 0.427961 0.118992 0.698721 0.036531 0.943297 0.421247 0.914121 -0.443159 -0.574023 0.789544 0.356609 0.528001 0.645741 0.243385 0.295877 0.469466 0.371929 0.802362 -0.998657 -0.099155 -0.625904 -0.514023 -0.257363 0.341594 -0.578173 0.313822 0.789239 0.311319 -0.715323 0.305338 -0.589343 -0.670461 0.732170 -0.519883 -0.123508 -0.084262 0.533738 0.857662 -0.543809 -0.410504 0.458968 0.457503 0.419416 0.870357 -0.722587 -0.700858 0.035493 -0.722282 0.758660 -0.597766 0.574145 -0.668691 -0.327921 -0.213843 -0.695181 0.550584 -0.212683 0.470565 0.497055 -0.545030 -0.126072 0.474899 -0.579638 -0.435896 -0.298624 -0.181249 0.344340 -0.602527 0.039216 -0.478439 0.538438 0.474715 0.656972 -0.397015 0.272195 -0.684805 0.324198 -0.917478 0.815241 -0.561449 0.810358 -0.020356 0.436995 -0.635670 0.885067 -0.686087 0.407025 0.612049 0.317850 -0.895199 0.994934 -0.298868 -0.121860 0.372051 -0.529893 0.151219 -0.664418 -0.865108 0.102145 0.481857 -0.540330 0.413129 0.160680 0.212439 0.019990 0.226112 -0.084933 -0.137364 -0.214087 -0.406598 0.634999 0.952025 0.527146 0.534593 0.589892 -0.000092 -0.986938 0.069185 -0.950743 0.526048 -0.986633 0.216712 0.282815 -0.950194 -0.702567 -0.003327 -0.440168 -0.909177 -0.365093 -0.571398 -0.849971 -0.831355 0.795282 -0.467879 0.322916 0.802789 0.548021 0.326701 -0.652028 0.512680 -0.337260 0.831843 -0.505234 -0.182104 -0.091037 -0.932981 -0.967223 -0.762017 0.056185 0.051973 -0.768426 0.292581 -0.126072 -0.193945 0.360698 -0.498947 0.131809 -0.651173 -0.310343 0.383099 0.599292 0.699881 -0.512009 -0.541978 0.045869 0.878719 -0.974792 0.245582 0.241127 -0.095187 0.570971 -0.734855 -0.045381 0.797784 -0.605457 0.036348 0.955870 -0.422895 -0.234291 -0.921323 0.014313 -0.737724 0.953978 -0.088351 0.899594 -0.127049 -0.771355 -0.945189 0.381207 0.428571 -0.140477 0.027802 0.228614 0.948729 -0.884030 -0.650075 -0.788507 0.452803 0.267617 0.540941 -0.900754 0.960509 -0.416120 0.120212 0.661489 -0.508774 0.334452 -0.392682 -0.332316 0.064669 0.788751 -0.478133 0.887448 -0.299844 0.216285 -0.616688 0.090243 0.417402 0.886715 -0.288797 0.045564 -0.764153 0.069369 0.025056 0.523057 0.175024 0.033967 0.844417 0.292154 0.254494 0.050020 -0.311197 -0.877560 -0.506272 0.386944 -0.922239 -0.216590 0.912351 0.314371 0.530931 0.044649 0.529771 0.101779 0.567614 0.675649 -0.634388 -0.981323 0.707511 -0.554125 -0.560595 -0.665334 -0.529954 -0.874996 -0.229347 0.319315 0.374859 -0.517502 0.378887 0.242042 -0.058565 -0.712149 0.283670 0.372417 -0.310709 0.310648 -0.495529 0.980041 0.137974 -0.679617 -0.939146 -0.665700 0.807001 0.086642 0.972411 -0.295206 0.215857 -0.621143 0.258583 -0.638844 -0.115818 0.966674 0.938963 0.572802 0.331462 -0.380474 0.032991 0.609302 -0.922849 -0.893002 -0.439741 -0.259865 0.640980 0.198645 0.540391 -0.765130 0.542283 0.663930 0.992798 -0.636891 -0.699393 -0.727592 -0.063021 -0.605762 0.435591 -0.206397 -0.607410 -0.402081 0.466720 0.997192 0.379070 -0.756401 0.913450 0.652455 0.916013 0.600940 0.295389 -0.470992 0.022858 0.939329 0.132115 -0.603504 -0.280740 0.528306 0.943052 -0.975646 -0.975402 0.637440 0.247780 0.182226 -0.041414 -0.463790 0.565844 -0.360576 -0.459395 0.494308 -0.583300 -0.834346 -0.209693 -0.218909 -0.679983 -0.469588 -0.272927 0.666189 -0.204749 0.503281 -0.629444 -0.580920 -0.638112 0.853633 -0.259743 -0.690725 -0.460494 0.351115 0.855770 0.606433 0.847652 -0.234779 -0.263527 0.580004 0.805841 0.865535 0.401959 -0.500595 -0.066439 0.421552 -0.128147 0.634388 -0.249611 0.202795 0.165563 0.254311 0.775933 0.978820 0.302713 -0.371258 0.529588 0.519089 0.302774 -0.972777 -0.469100 -0.406781 -0.814753 -0.280618 -0.700552 -0.029267 0.969787 -0.025361 0.354839 0.421125 0.675832 -0.937498 0.216407 0.713919 0.322916 -0.747368 -0.596179 -0.381329 0.930601 -0.185583 -0.563341 0.904965 0.518357 -0.982543 0.834346 -0.657826 0.105808 0.131382 -0.883602 0.700003 -0.287576 -0.574511 0.802484 -0.252113 0.357768 0.169530 -0.588061 0.255348 0.061312 0.632923 -0.535508 0.992065 -0.157323 0.085177 0.479598 -0.272683 -0.278665 0.795892 0.976745 -0.769158 0.716849 0.034577 0.475448 -0.727958 0.848689 0.070772 -0.504746 0.620594 -0.863582 0.173986 -0.444197 -0.954100 -0.400372 0.613819 -0.823481 -0.682485 -0.742241 0.659719 -0.122959 -0.794977 0.130467 0.581164 0.176733 -0.522080 -0.762932 -0.352153 -0.404767 -0.094211 0.597339 0.129185 0.652089 -0.741997 -0.769402 -0.705252 0.866756 -0.695730 -0.843440 -0.585925 0.758843 0.814081 -0.605396 -0.243324 -0.152257 -0.443098 -0.035615 0.592151 0.653249 0.302286 -0.114658 -0.810175 0.694632 0.819819 -0.822932 -0.180517 0.491501 -0.121067 0.859066 -0.249489 -0.436567 -0.750786 0.950865 -0.747490 0.429975 -0.299722 0.471969 -0.405011 0.610584 -0.998474 -0.558031 -0.952574 0.624866 -0.077425 0.880428 0.879452 -0.007721 0.232887 0.806696 -0.639576 -0.767632 0.702078 0.240516 -0.239906 -0.135289 -0.900449 -0.798761 0.347880 0.408856 0.194983 0.708609 0.393292 0.384198 -0.242225 0.781976 0.165929 0.310404 0.557604 0.440901 0.935240 -0.293008 0.363872 -0.295083 0.970824 -0.906613 -0.053865 -0.406354 -0.457808 -0.010712 -0.926084 0.126560 0.918882 0.914121 0.516892 0.323160 0.370403 -0.612659 0.044343 0.202979 0.166295 -0.071322 0.426008 0.785638 -0.423933 0.057527 -0.568651 0.090548 0.869320 0.293435 -0.170141 -0.862728 -0.684500 0.155919 -0.608875 -0.054598 -0.815790 0.164525 0.884701 -0.465560 -0.255043 -0.161168 0.080050 -0.076083 -0.732719 -0.301675 -0.253334 0.133335 -0.979369 -0.737480 -0.345805 0.182226 -0.725333 -0.948973 0.572130 -0.909848 -0.701102 0.583361 0.269997 0.876705 -0.637257 0.378948 -0.482772 0.561266 0.735893 -0.042634 0.083529 0.163488 -0.312296 -0.161779 0.738334 0.702811 -0.512192 -0.459090 -0.748894 0.198828 0.405744 -0.414899 0.391583 -0.328959 -0.288980 -0.509690 -0.070894 -0.860958 -0.326823 -0.224036 0.633290 -0.377728 -0.438276 -0.038301 0.273598 -0.859676 -0.353740 0.567003 -0.380352 0.712760 -0.803766 -0.888668 0.440962 0.359050 0.481185 0.114414 -0.493027 -0.901364 0.770745 -0.904416 0.587329 0.951292 0.334269 0.574511 
-0.939940 0.650380 -0.171667 0.782586 -0.122654 -0.097201 0.324808 -0.465011 -0.899106 0.015656 0.948302 0.493637 -0.577807 0.930357 0.890255 0.099765 0.532640 -0.411725 0.342021 -0.205176 -0.876461 -0.069124 0.495041 0.020234 0.886532 0.899533 -0.459334 0.217444 0.512803 0.435591 0.670461 0.827815 -0.306192 -0.519456 0.075655 -0.707327 -0.878964 -0.024262 0.947752 0.053621 0.485824 0.862667 -0.521958 0.551866 0.479598 0.082675 0.858150 -0.771111 0.793817 0.577136 -0.720756 -0.473861 0.119724 0.287515 -0.067110 -0.114963 0.148900 0.155187 -0.989624 -0.253151 -0.427351 0.121555 -0.296731 -0.446883 0.082430 -0.871944 0.202857 0.745293 0.369671 -0.883908 -0.299478 -0.235450 0.125645 -0.972961 0.387738 0.052522 0.041902 0.802362 -0.544115 0.050508 -0.190222 -0.616688 -0.903623 -0.800104 0.120762 0.711539 0.500656 -0.057833 0.666189 -0.271767 -0.139988 -0.281289 0.137425 0.374981 0.366008 0.970946 0.225929 -0.407025 0.209876 -0.859859 -0.376934 -0.676199 0.583239 0.667898 0.020356 0.508835 -0.322733 0.995544 0.109104 -0.910642 0.683584 0.564440 -0.419294 0.006989 -0.206641 0.816034 -0.873348 -0.797052 0.198218 0.191687 0.438337 -0.381268 0.089511 0.132908 0.207007 -0.804315 0.658559 -0.919004 0.124302 0.875301 0.096835 0.477462 0.881466 0.598926 -0.404279 0.763665 0.169958 -0.692068 -0.653310 -0.619129 0.681204 0.943907 0.541063 0.770745 0.106540 0.447981 -0.629749 0.374493 -0.862545 -0.238258 -0.974303 0.633656 -0.534715 -0.173437 -0.301126 0.989502 -0.218482 0.583850 0.581042 -0.116489 -0.222449 0.975036 -0.136326 0.757195 0.144688 0.941465 0.738212 0.051729 0.574450 -0.575488 -0.603992 -0.791314 -0.241859 0.365703 -0.971557 0.669485 -0.612781 0.706351 -0.172948 -0.124607 0.153111 0.387921 0.983154 -0.732109 -0.252785 0.351787 0.688101 0.288491 0.860958 0.539415 0.133396 -0.621570 -0.814386 -0.107944 -0.489608 -0.020783 -0.587207 0.351299 0.010529 0.532212 -0.766228 0.858455 -0.174841 0.478866 -0.660024 -0.645131 0.145787 0.260537 -0.577197 0.782159 -0.836299 -0.681387 0.173681 -0.918516 0.070406 0.094577 -0.715995 -0.805597 -0.942808 0.029817 -0.554796 -0.937742 -0.684378 -0.434309 0.348674 -0.373516 -0.963012 0.143651 0.685842 0.828547 -0.587268 0.205115 0.147984 -0.390301 0.634266 -0.808649 -0.573351 -0.088473 -0.107028 -0.456038 0.213294 0.675283 -0.619739 0.704276 -0.800897 -0.157567 0.287576 -0.886349 0.075716 0.354411 0.806269 0.213538 -0.465621 0.152562 0.127781 0.445357 -0.733451 0.178381 0.443525 -0.749565 -0.036348 0.373211 0.944884 -0.929685 -0.682913 -0.321574 -0.176794 -0.653676 0.018281 0.035493 0.270058 0.519822 -0.241432 0.385784 0.476669 0.032319 -0.770562 0.670766 -0.365398 0.325114 0.122288 -0.168249 -0.064852 0.839717 -0.871578 -0.189734 0.569811 0.017426 -0.060640 -0.452437 -0.270180 -0.700308 -0.753594 0.985229 0.606800 -0.872066 0.741142 -0.935545 -0.607959 0.943663 -0.885250 -0.273171 -0.723075 -0.811945 0.058809 -0.086276 0.452986 -0.697317 0.264687 -0.433515 0.111484 -0.271096 -0.576342 -0.373455 0.443953 -0.091830 0.227332 0.035310 0.641652 0.281838 0.367046 -0.265847 0.896115 0.291299 0.534104 0.664602 0.398663 0.378033 0.420026 -0.232093 -0.659230 -0.016694 0.716178 0.985656 0.913816 -0.451338 -0.886105 -0.741020 -0.690847 0.515488 0.304788 0.529588 -0.281716 -0.674856 -0.019990 -0.261330 0.332621 -0.580981 0.831172 0.827754 0.343425 -0.761406 0.549547 0.738212 -0.057772 0.225257 -0.173376 -0.588672 0.320414 0.820429 0.353801 -0.211219 -0.330668 0.465438 0.822443 -0.188269 -0.819514 -0.398358 0.923948 0.421674 -0.954772 -0.329325 -0.650319 -0.439985 0.455000 -0.886288 -0.208777 0.168188 -0.398907 -0.627674 0.939879 0.187536 -0.324931 0.887875 0.486984 0.559557 0.868282 -0.898373 -0.875973 -0.774468 0.372051 0.455184 0.542405 -0.873043 0.377850 0.389874 -0.566515 0.205237 0.077120 -0.652944 -0.511216 -0.598254 -0.338786 0.768242 -0.600452 0.657888 0.321574 -0.905332 0.857356 0.915159 0.249550 -0.232032 0.553453 0.114780 0.636647 -0.770623 0.179296 -0.801752 -0.325846 0.920408 0.426374 0.107089 0.553575 -0.717643 0.985961 -0.217444 -0.533799 -0.243324 0.549547 0.166112 -0.396405 0.784845 0.808588 0.199194 -0.842952 -0.191870 0.454329 -0.176855 -0.681997 -0.731925 -0.821711 -0.020600 0.277871 0.606006 -0.328104 0.609363 -0.771966 0.263344 -0.373516 0.654469 0.359905 -0.318522 -0.266518 0.056001 0.864986 -0.698111 -0.315653 -0.244484 0.934507 0.565905 0.170446 -0.305582 -0.240028 -0.085055 0.883175 0.814020 -0.467269 0.790521 0.513962 -0.944273 -0.555651 -0.366192 0.754204 -0.638966 -0.313944 -0.113559 0.295267 -0.328715 -0.550707 -0.010285 0.828608 0.927976 0.925596 -0.614978 -0.954466 -0.927671 -0.693838 0.513840 0.637684 -0.954100 0.782647 0.817560 0.296243 0.790094 0.546190 0.737541 -0.287332 -0.753777 0.788385 -0.284829 -0.421552 0.355754 0.700552 0.191931 -0.415143 -0.939940 0.474166 -0.390790 0.423444 -0.699332 -0.699515 0.408429 -0.214454 0.018830 -0.628895 0.030915 0.362529 -0.843989 -0.122654 0.918149 -0.154149 -0.346355 -0.989380 0.511521 0.926939 -0.546922 -0.037690 -0.747612 -0.702933 -0.504196 0.923887 0.582263 -0.352214 -0.276833 -0.913388 0.942503 -0.329508 -0.923460 0.642140 -0.225623 0.056551 -0.502609 0.781610 -0.480514 0.497360 -0.072848 -0.303446 -0.380840 -0.315653 0.307108 0.578417 0.514878 -0.691092 -0.421247 -0.381512 -0.352153 0.062471 -0.316446 0.008332 -0.540330 -0.363628 -0.437239 -0.060762 -0.608264 0.722098 -0.842097 0.602649 -0.114658 -0.989013 -0.589648 0.189917 0.382000 -0.805475 0.261513 -0.107456 -0.676992 0.964110 0.652821 -0.098117 0.149876 -0.988952 0.525620 -0.590686 -0.696097 -0.973205 0.821345 0.606311 0.226661 -0.297159 -0.518662 0.684256 -0.640614 0.730583 -0.552843 -0.165502 0.143590 0.801263 0.660085 -0.751518 -0.979431 -0.393597 0.061556 -0.882382 -0.568102 -0.162572 -0.406964 0.633412 -0.181127 -0.814325 0.195837 -0.012909 -0.377117 0.342631 -0.188574 0.370159 -0.714652 0.999695 -0.618824 -0.026032 0.247780 -0.151830 0.846553 -0.009980 0.951476 0.579577 -0.851131 0.609668 0.837825 -0.114719 0.229652 -0.975768 0.348308 -0.543321 -0.969848 -0.574755 0.924253 -0.014801 -0.508103 -0.995911 -0.992920 -0.837825 0.556322 -0.047884 0.038301 -0.320902 0.164647 -0.539171 0.459273 -0.772637 -0.741569 -0.278481 -0.288736 0.498398 -0.220862 -0.074374 0.235878 -0.816523 0.668020 0.264626 -0.525620 -0.025788 -0.133457 -0.070162 -0.131687 0.561815 0.316141 -0.887265 0.859004 -0.362224 -0.041841 -0.995361 0.887753 0.893612 -0.265908 -0.202918 -0.603870 -0.979553 -0.414716 0.681387 0.825495 -0.290017 0.453169 -0.151036 0.617237 -0.346538 0.279092 0.491195 -0.787286 0.542344 0.004547 0.799554 0.053438 -0.932005 -0.429182 -0.034639 -0.419294 0.921873 -0.080538 0.180151 -0.763970 0.795343 0.991882 0.635182 -0.539232 0.379803 -0.270730 -0.478072 -0.303690 0.366741 0.073275 0.031831 0.384075 0.447493 0.965209 0.356304 0.965514 -0.686575 0.346416 -0.313395 -0.118076 0.656056 -0.841609 0.214331 0.574816 -0.833369 -0.657460 -0.869259 -0.514451 0.536790 -0.159764 0.627369 0.055513 -0.542283 0.592883 -0.104465 0.726188 -0.379070 0.541917 -0.873348 0.938902 -0.282144 -0.371380 -0.487838 -0.864925 -0.560167 0.794610 -0.756584 0.756157 -0.521775 -0.018830 -0.488083 0.243507 -0.475387 0.129673 0.509018 -0.961486 0.270241 -0.818415 -0.573962 -0.417280 -0.593432 0.078341 0.454512 -0.682608 -0.374981 0.761284 0.785821 0.683950 0.616993 0.171850 0.611316 -0.876156 -0.926145 0.251442 -0.877621 -0.921567 0.687063 -0.058565 0.510544 -0.010773 0.147984 -0.816767 -0.032868 0.297525 
0.483627 -0.086581 0.413068 -0.520493 0.082247 -0.086520 0.638112 -0.856441 0.790094 0.660451 0.810175 -0.482650 0.532823 0.329997 -0.645009 -0.723380 0.236244 0.097995 -0.301492 0.097201 -0.173803 0.140110 0.266335 0.654897 0.228431 -0.367779 0.484359 0.625416 -0.631336 0.750114 0.778375 0.684622 0.172765 0.669546 0.574023 0.508164 0.566515 -0.433821 0.297220 0.771966 -0.524400 0.616016 -0.626331 -0.848323 0.825922 -0.005341 0.229225 0.323222 -0.456893 0.878048 0.289590 -0.037690 -0.446883 -0.558275 -0.019379 0.744682 -0.218421 0.861751 0.728080 0.346171 0.154393 -0.686331 0.957701 -0.557421 -0.402692 -0.026521 0.095309 -0.290384 0.036042 -0.983276 0.566637 -0.176855 0.396466 -0.380596 -0.202490 -0.541124 0.604297 -0.042817 0.213721 -0.707389 -0.414655 -0.794122 -0.758965 -0.999817 -0.734672 -0.458785 -0.694815 -0.742729 0.570177 0.139073 -0.167943 -0.260231 -0.574511 -0.824885 -0.752617 -0.876583 0.757195 -0.174718 0.976928 -0.916074 0.491012 0.265175 -0.553575 0.297220 -0.447310 -0.329325 0.081759 0.438948 -0.131932 0.217566 -0.691397 0.184912 0.362896 -0.918394 0.552843 -0.789056 0.963012 0.438581 0.240211 0.192785 0.594043 -0.535752 -0.203528 0.806269 -0.818049 0.334452 -0.352580 -0.272866 -0.347575 0.224952 -0.781121 0.631153 -0.068758 -0.688589 0.936583 0.194128 0.944273 0.769829 0.226295 0.091830 0.617176 0.775811 -0.486190 -1.000000 -0.124180 0.505234 0.225013 0.594592 0.645924 0.133824 0.785577 -0.448897 -0.146702 0.837336 0.621265 -0.454451 -0.576281 0.791681 0.157872 -0.746330 0.282998 -0.827570 0.821223 0.351176 0.356914 0.155614 -0.962951 -0.486129 0.571215 0.916807 0.231239 0.417585 0.851680 -0.368084 0.829463 -0.262001 0.124058 -0.523362 0.257485 -0.848994 0.314249 0.626881 0.941221 -0.667714 0.347942 0.258217 0.306314 -0.042268 0.150914 0.546678 0.778619 -0.296915 0.648976 0.667837 -0.216102 0.244057 -0.232093 0.797601 -0.252113 0.256508 0.433454 0.111606 0.096469 -0.583850 0.571459 0.785882 -0.744621 0.398846 -0.892331 -0.004059 0.650380 0.880367 -0.032136 -0.082247 0.707266 -0.463668 0.077853 -0.273049 0.851802 0.042756 -0.636647 -0.400494 -0.490280 -0.924680 0.750237 0.711051 0.106906 0.309793 0.164220 -0.762627 -0.930906 0.421979 0.531114 0.354289 -0.177892 -0.912412 -0.223365 0.237648 0.791681 0.982543 0.826655 0.063082 -0.596484 -0.217505 -0.393109 0.006500 0.083590 0.163305 -0.956847 -0.756462 0.257546 -0.199316 -0.938780 -0.049776 0.351176 -0.629566 0.586901 -0.697928 -0.209693 0.548387 -0.454085 -0.524949 -0.999390 0.010285 0.864071 -0.355144 -0.591968 -0.568102 0.467147 -0.012726 -0.561693 -0.510971 -0.719047 -0.321940 0.517136 -0.142491 -0.768792 0.893124 -0.929685 -0.786981 -0.756218 0.808100 0.523728 -0.768609 -0.755608 -0.401227 -0.697012 0.588427 0.158910 0.441023 0.834040 0.959838 -0.087069 -0.489425 -0.457442 -0.978576 -0.567614 -0.016755 0.854427 0.449080 0.643056 0.034761 -0.804743 -0.081576 0.470626 0.840938 -0.008942 -0.894650 0.840999 0.577563 -0.332621 0.685659 0.679861 0.420392 -0.349834 0.335002 -0.087008 0.545213 0.365154 0.729240 -0.533799 0.127781 -0.761895 -0.455916 -0.734672 -0.656056 0.694876 -0.544542 0.236061 -0.630543 0.161046 0.139073 0.304300 0.380108 0.062654 0.270669 0.395672 -0.448408 -0.174718 -0.473922 0.436018 -0.940184 -0.125156 0.581103 -0.648854 0.080538 -0.362957 -0.888607 -0.933164 0.789483 -0.462325 -0.207129 0.508957 0.362407 -0.997497 0.301248 -0.396954 0.975219 0.457442 -0.687674 -0.724906 -0.196448 -0.671926 0.501938 -0.549181 -0.976745 0.040315 0.545763 -0.944029 -0.189856 0.019929 -0.880367 0.016449 0.340007 -0.307413 0.899411 -0.742119 -0.211463 0.484237 -0.439314 0.706168 0.331584 0.820551 -0.220618 -0.713065 -0.855159 0.127354 -0.768792 0.926206 0.404279 0.830439 0.592090 0.549547 -0.714530 0.355510 -0.462386 0.082797 -0.035676 -0.871639 0.743706 0.451765 -0.383465 0.574877 -0.113926 -0.417768 0.418012 -0.879269 -0.359478 0.399945 -0.455611 0.191809 -0.317179 0.830744 -0.828486 0.213782 0.688772 -0.199622 0.475204 0.612476 0.334086 -0.765435 -0.368816 -0.186316 -0.705374 0.059236 -0.184729 -0.756829 -0.753838 0.200049 -0.796808 -0.673269 0.864559 0.582812 0.970824 -0.509812 -0.174657 -0.866695 -0.706168 0.159215 0.804559 0.777398 -0.651906 0.759697 -0.522202 -0.559313 -0.690664 -0.282632 0.520981 0.049104 0.353374 0.457991 -0.390179 0.528428 0.655995 -0.592639 -0.579943 -0.195654 -0.607105 -0.008698 -0.372417 -0.197302 0.739982 0.635548 0.908200 -0.550768 -0.127110 0.765862 0.937498 0.669851 0.967589 0.808100 0.391400 0.390118 -0.800348 0.187963 0.945677 0.535997 0.745048 -0.668752 -0.723991 0.033235 0.779412 -0.336161 -0.941649 0.807550 -0.521409 -0.388653 0.968383 -0.215247 0.018403 0.599719 0.681875 0.890683 0.574572 -0.945433 0.874691 -0.948973 0.322855 0.401898 -0.777581 0.191626 -0.560900 -0.932737 0.401105 -0.761773 -0.900937 0.476547 0.086337 0.116672 -0.521470 -0.944456 0.953978 -0.247353 -0.246742 0.230018 0.679800 0.072054 0.099094 0.425764 -0.060518 0.000580 -0.308267 -0.931516 0.408979 -0.535997 0.707022 0.584094 0.764031 -0.611866 0.320658 0.398236 0.680288 -0.301187 0.708548 0.936827 0.833674 -0.678335 -0.953673 -0.374493 0.899899 0.182714 -0.490097 0.890194 -0.445296 -0.792535 -0.725028 0.156590 0.474044 0.321879 0.517441 -0.149571 0.333476 0.451704 0.412946 -0.602405 0.808954 -0.477340 -0.862728 -0.776177 0.576220 0.460677 -0.133702 0.754997 -0.689077 -0.808710 0.775811 0.416730 -0.310953 0.640553 -0.958556 -0.365154 -0.613758 0.734062 0.839167 0.835200 -0.921690 0.397626 -0.655446 -0.556566 0.441145 -0.442915 0.733634 -0.114475 0.150304 -0.861812 0.181982 -0.412885 -0.118259 -0.933287 -0.134556 0.974059 0.311258 0.268471 0.959838 -0.528001 -0.885556 0.669240 -0.359111 -0.493088 0.967345 -0.805292 -0.915586 0.504501 -0.454512 -0.229225 -0.533799 0.890500 -0.475204 -0.676870 -0.037996 0.090732 0.581103 -0.222327 0.747673 0.530931 -0.610034 0.060030 0.998901 -0.363079 -0.372600 0.096103 0.891476 -0.165441 -0.030854 0.811701 -0.398846 0.549486 0.090854 0.132420 -0.696158 0.207556 0.668447 0.984252 -0.824763 0.234535 -0.622425 -0.707205 -0.608875 -0.943846 0.894162 -0.016022 -0.872738 0.098300 0.893918 0.983581 0.559557 -0.213294 0.052583 -0.782769 0.863643 -0.452864 0.045991 0.610889 0.215308 -0.194617 -0.450117 0.090182 -0.209632 -0.012726 0.240089 -0.418989 -0.235328 0.518479 0.792413 0.009125 -0.686087 0.824885 0.882565 -0.699759 0.613941 -0.667837 -0.813715 0.380230 0.840510 -0.533738 -0.620472 -0.825190 0.169286 -0.347209 0.137974 0.609790 -0.223792 -0.682363 -0.862667 0.610950 -0.162999 0.886654 -0.946532 0.104099 -0.472518 -0.214637 -0.437849 -0.985107 -0.976684 0.439802 -0.660817 0.269326 -0.499557 0.275613 0.060335 -0.207007 -0.865474 -0.281411 0.401349 0.511826 -0.898556 0.194555 0.038057 0.351421 -0.423139 0.129307 -0.353801 0.237709 -0.263344 0.948607 0.901608 0.096408 -0.243446 -0.921873 0.479965 0.853328 0.812433 -0.056124 0.057100 0.434248 -0.920164 -0.028596 0.308878 -0.235084 -0.265175 0.586657 0.911008 0.771172 0.953063 0.215308 0.539232 0.378704 -0.089694 0.283242 0.869442 0.513413 0.782342 -0.783868 0.577319 0.100925 0.744987 0.439802 -0.661367 -0.932798 -0.026032 0.380108 -0.170751 0.337931 -0.354839 0.462691 -0.275124 -0.161168 -0.065767 -0.886593 -0.298624 0.495834 0.017060 -0.241920 -0.565538 0.234596 0.069369 0.822443 -0.400067 -0.019013 -0.733024 -0.267800 -0.126377 -0.339335 -0.214393 0.913327 0.931272 0.199561 0.801141 -0.208594 0.448592 -0.476669 0.489242 0.792352 -0.898618 
-0.621387 -0.871944 -0.831111 0.822993 0.994079 0.418195 -0.086886 0.629017 0.297708 -0.516709 -0.168126 0.321451 -0.487838 -0.203772 -0.352275 -0.127049 -0.139866 -0.170507 -0.916562 0.256264 -0.435774 -0.944090 0.861690 -0.556139 -0.152806 -0.051973 0.705008 0.408612 0.931639 -0.021516 -0.663930 -0.876949 0.040132 -0.379986 0.477706 0.559862 -0.604602 0.345256 0.852412 0.691702 0.220130 0.626881 0.182836 0.491195 0.736991 -0.062593 -0.808344 -0.069002 0.168554 0.749687 -0.398358 -0.016205 0.737602 0.536241 0.135350 0.622303 -0.333415 -0.230201 0.515427 0.819086 -0.821650 -0.077059 -0.535447 0.546800 0.495529 -0.531602 0.705374 0.778191 -0.159337 -0.121189 0.960570 -0.514206 0.436567 -0.373150 -0.047273 -0.357646 0.505783 0.185095 0.404645 -0.779534 -0.729057 0.026276 0.038789 -0.807184 0.954833 0.623035 -0.422040 -0.467879 0.779962 0.448042 0.744804 -0.789056 0.969115 0.973876 0.261940 0.202002 0.744865 0.673269 -0.147984 -0.522080 0.329936 -0.981201 0.237648 -0.988708 0.946898 0.483322 -0.858394 -0.225074 0.818476 0.539232 -0.713553 -0.258583 -0.832759 -0.340678 0.394940 -0.116672 0.215979 -0.683767 -0.810419 0.173437 -0.812738 -0.017304 -0.606861 -0.415693 0.303812 -0.868831 -0.271767 0.088656 0.788202 -0.765496 -0.082430 0.659169 0.863094 -0.234718 0.683767 -0.731681 -0.248817 -0.803888 -0.250587 0.889035 -0.324931 0.999817 -0.162755 -0.506211 -0.142491 -0.351176 0.669973 0.055269 0.521165 0.615955 0.970153 0.546190 0.888546 0.373760 0.460433 -0.060884 -0.817621 0.395001 -0.136448 0.206763 0.625416 -0.847774 0.902097 0.321818 -0.559862 0.118198 0.298746 0.256813 0.849422 -0.234535 -0.223853 0.984558 -0.924314 -0.433210 0.057039 0.477584 -0.658254 -0.005219 0.864010 -0.291360 -0.129795 0.522080 0.919614 0.650380 -0.116245 -0.378704 -0.053316 0.275369 -0.395062 0.765252 0.667776 0.556322 0.256569 0.426435 0.805597 0.465865 0.061251 0.077548 -0.917295 -0.023286 0.241554 0.191259 -0.778130 0.061495 -0.979797 0.240272 -0.054292 0.692862 -0.380108 0.697195 0.976928 0.843501 0.263222 -0.965392 -0.961974 0.486007 0.172887 -0.274697 -0.148167 0.593066 -0.428510 0.241920 0.140904 -0.862728 -0.318278 -0.942991 -0.372051 -0.908628 0.726249 -0.356670 -0.964415 0.428083 -0.072298 0.473495 0.086520 0.119907 -0.491256 -0.979858 -0.496628 0.139561 0.692068 -0.243995 -0.991272 -0.540269 -0.299783 0.153661 -0.674612 0.053011 -0.244057 0.685781 0.175939 0.892148 -0.918088 0.825068 0.283059 -0.050264 0.900815 -0.955931 -0.630726 0.198401 -0.564806 0.815607 0.157445 -0.389142 -0.092257 0.612171 0.370159 -0.840266 0.541185 -0.093478 0.729972 0.817743 0.558092 -0.828791 0.959655 -0.442549 0.181127 -0.120884 -0.218238 -0.648488 0.633045 0.502670 0.919065 -0.827326 0.136387 0.514634 -0.905942 0.993652 -0.086154 0.387555 0.029633 -0.213172 0.188086 -0.405744 0.448286 -0.474899 0.181738 0.607288 0.072665 -0.818964 0.117527 0.899289 -0.374554 0.727348 -0.781976 0.942991 0.829402 -0.863460 -0.293985 0.210974 0.407025 0.381512 0.804010 -0.824030 0.081027 -0.565294 0.734733 -0.689444 0.574145 0.268899 0.720817 -0.912534 -0.391156 -0.143284 0.984924 -0.020661 -0.092013 0.170812 0.749748 0.458846 -0.805902 0.183813 0.237892 -0.001495 0.189978 -0.131626 0.672048 -0.928892 0.618091 0.197180 0.274819 -0.850703 -0.798822 -0.857112 0.268960 0.705802 -0.337992 -0.321818 0.877010 -0.786981 0.723075 -0.224342 -0.678335 -0.856136 0.107089 0.408063 -0.174291 -0.029084 0.536729 -0.452071 -0.388409 0.166845 -0.265419 0.168004 0.902158 -0.795831 0.423383 0.240883 0.919919 -0.444258 0.325785 0.739250 -0.112461 0.694143 0.164403 -0.364238 -0.972228 -0.908017 -0.338115 -0.096896 0.563280 0.221961 -0.459090 -0.486129 -0.283425 0.556749 -0.475814 -0.559191 0.710440 -0.431074 0.334330 -0.343547 0.767510 -0.268715 -0.306070 -0.866451 0.110324 0.516343 0.325785 -0.155187 -0.038301 0.396832 -0.047639 0.762749 0.544298 0.845393 -0.703543 -0.139927 -0.919431 0.334635 0.080721 0.109470 -0.206580 0.337321 -0.972228 -0.516465 -0.094638 -0.674001 -0.139744 0.955077 -0.360942 0.773431 -0.699149 0.496506 0.217261 -0.847896 -0.927732 -0.919370 -0.137486 -0.065096 -0.102939 0.680227 -0.202490 -0.405683 -0.502060 0.267678 0.244911 -0.396954 0.597583 -0.184179 0.427412 0.433760 0.918577 0.297281 0.567553 -0.440901 -0.816462 -0.315348 -0.111850 -0.548265 -0.884701 0.950682 0.611744 -0.415693 -0.563585 0.067965 -0.039033 0.429487 -0.130467 0.009186 0.158605 -0.540086 -0.862728 0.747002 0.427229 -0.851741 0.962462 -0.745964 0.989563 0.967223 0.067537 -0.496994 -0.931944 -0.610706 0.175268 0.466536 0.885678 -0.112644 0.008271 0.117222 -0.335185 0.933958 -0.710746 -0.572253 -0.371746 0.001679 0.740898 0.370891 -0.001312 -0.436750 0.085726 -0.080844 0.998718 -0.908628 0.046541 0.045259 -0.149083 -0.941343 0.345866 -0.278115 0.778069 0.937803 -0.293558 0.921690 -0.997314 -0.798700 -0.149083 0.617237 0.747673 -0.677969 -0.498032 0.781243 -0.764580 -0.227454 0.382244 0.386334 0.688833 0.025483 -0.785760 -0.594775 0.330302 0.553514 -0.279092 0.810602 0.382672 0.829340 0.624683 0.574999 0.068514 -0.674490 -0.351726 -0.328837 -0.389508 -0.485214 -0.485641 0.071688 0.231361 -0.130222 -0.054415 0.749321 0.153661 -0.136814 -0.335429 -0.323344 0.600085 -0.032441 0.394086 -0.173681 -0.206763 -0.344279 0.856685 -0.828974 0.955931 -0.599841 0.775018 0.683462 0.310587 0.673696 0.871761 0.336161 -0.919980 -0.051241 0.869625 -0.898129 -0.513047 0.698294 -0.508835 0.953246 0.753899 -0.605335 0.459151 0.862911 -0.896481 -0.489303 0.496200 0.803583 -0.241432 -0.480941 -0.675161 -0.252235 0.941649 0.892392 -0.332072 -0.331706 -0.124607 0.103305 -0.752007 -0.462264 0.782525 0.624439 0.787835 -0.671255 0.885617 0.928526 0.009919 0.014008 0.407331 0.488144 -0.363079 -0.433821 0.570421 -0.223975 -0.608325 0.957945 -0.402631 0.264748 -0.003327 0.161840 0.711051 0.427046 -0.825373 0.150670 0.134007 -0.264504 -0.351787 0.897031 -0.911191 0.662893 -0.859981 -0.626514 -0.201697 0.681692 0.372784 -0.447188 -0.515000 0.264687 -0.930906 0.407636 0.371624 0.884518 -0.048311 -0.089389 -0.319193 -0.986206 0.743156 -0.965636 -0.364788 0.125217 0.166112 -0.248390 -0.542528 0.691458 -0.056673 -0.965026 -0.629749 0.185095 0.797418 0.857112 0.596301 -0.921140 0.450972 0.190649 -0.641957 0.845393 -0.373272 -0.991699 0.878475 -0.042695 0.047273 0.282693 -0.620106 -0.112705 0.435347 -0.013520 0.085177 -0.891964 0.513535 -0.907712 -0.783074 -0.907895 -0.995483 -0.427168 -0.002167 0.312296 -0.369060 0.400800 0.650563 0.241127 -0.884518 -0.451338 0.397626 -0.648732 -0.819147 -0.010712 -0.538194 -0.884518 0.549608 -0.304727 -0.934263 0.006378 0.944456 -0.360820 -0.567919 -0.503464 -0.912046 -0.206214 -0.216468 0.058687 0.702933 -0.868343 0.342692 -0.834529 0.511887 -0.374493 0.332194 -0.710440 0.237587 0.248024 -0.025300 -0.096408 0.602649 0.971740 0.492904 -0.519822 -0.670339 0.769402 0.109470 -0.507920 -0.858638 -0.386395 0.047029 0.411908 -0.239540 0.477157 0.528306 -0.287759 -0.090487 -0.667470 0.775811 -0.134190 -0.688833 -0.847530 -0.987732 0.345317 0.688223 -0.090365 0.460433 -0.376690 -0.236915 0.576647 -0.657216 -0.827509 -0.741386 -0.873836 0.882199 -0.534471 0.897458 0.530931 -0.698904 -0.024873 -0.597827 0.763482 -0.177709 -0.826167 0.495468 0.796564 0.668386 0.534410 0.900021 0.602771 -0.937986 0.529405 0.338481 -0.845271 -0.774163 0.631581 -0.466597 0.425214 0.382611 -0.686514 0.207617 -0.613269 0.754936 0.047884 -0.916379 0.012116 -0.434675 -0.692679 -0.115818 -0.726127 -0.963378 0.564623 -0.668142 -0.855281 
-0.487533 0.225501 0.561571 -0.882504 -0.255654 0.796869 0.383709 -0.382488 -0.135228 -0.003998 -0.364605 0.411359 -0.794183 -0.595019 0.148778 -0.418989 0.099521 -0.394147 0.755791 0.208655 -0.122166 0.180700 -0.711600 0.376141 0.872860 -0.288553 0.578845 -0.834407 0.416608 -0.219825 0.458907 0.659169 0.841121 0.968993 -0.239235 -0.061373 -0.521653 0.859737 0.316507 -0.913816 0.660451 0.034577 0.958007 -0.816156 -0.280618 0.075533 -0.482650 0.313639 0.987243 -0.435347 0.826655 -0.442427 -0.204077 0.083895 0.717826 0.997742 0.477584 0.215369 0.022980 -0.283975 0.364238 -0.458907 0.574084 -0.205420 -0.212134 0.643056 -0.796808 0.315470 0.080538 -0.896725 -0.257546 -0.639454 -0.425764 -0.496139 -0.976318 0.012055 -0.398907 -0.573229 0.879147 0.351970 0.493027 -0.545946 0.140660 -0.537828 -0.417829 -0.832209 0.640370 -0.575121 -0.799554 -0.850032 -0.789789 -0.677969 0.680044 0.982665 -0.317606 -0.764336 0.352763 -0.752251 0.888852 0.247902 -0.449141 -0.472518 0.661550 0.440657 0.606250 0.403790 -0.167394 0.895993 0.850948 -0.541368 0.234046 -0.304117 0.617054 -0.725822 0.697867 -0.077486 -0.763482 -0.567675 -0.943968 -0.342265 -0.958495 0.515244 0.140721 -0.016266 -0.636097 0.104831 -0.216102 0.982543 0.535875 0.783258 0.817621 -0.264016 -0.110691 0.132359 -0.926206 0.326334 -0.243629 0.734367 -0.615345 -0.164525 -0.531053 0.171178 -0.417951 0.345500 -0.640797 -0.975097 0.498154 0.938475 0.759148 0.877621 -0.035066 -0.303690 0.000763 0.311136 0.814386 -0.298868 0.416059 0.907773 0.878597 -0.965087 0.337138 -0.750725 0.989563 0.779839 -0.904050 0.917966 0.979308 -0.982360 -0.975341 0.495651 -0.320109 0.830683 -0.544847 -0.435591 0.923338 0.300821 0.719596 0.706351 -0.458357 0.510056 0.149876 -0.496567 -0.633045 -0.459517 0.078097 0.537767 -0.768853 0.474166 -0.163671 -0.608753 0.966430 -0.606983 -0.243446 0.646046 -0.595386 -0.620777 -0.829218 -0.115879 0.377911 0.514756 0.411115 -0.312479 0.718253 -0.118442 0.809565 -0.361736 0.257729 -0.438276 0.698111 0.318461 -0.171667 0.637379 -0.591235 -0.690054 -0.737907 -0.809687 -0.726371 -0.805048 -0.608875 0.302835 -0.375225 -0.444563 0.047395 0.056856 0.794183 0.973510 0.062899 -0.465682 0.113804 -0.969054 -0.730338 0.817438 -0.084262 0.310099 0.499802 0.988098 -0.467940 0.392865 -0.414716 0.128330 -0.705252 -0.138829 -0.641835 -0.679739 0.535875 0.297220 -0.349528 0.645924 -0.412641 0.282937 -0.705741 -0.812799 -0.218604 -0.599658 0.121494 -0.973754 -0.550096 0.231544 0.964293 -0.754875 -0.075045 0.358562 -0.345378 -0.074252 -0.461470 0.363384 -0.975524 0.150243 -0.377239 -0.171972 0.906064 0.000641 0.509629 -0.665456 0.131199 0.558885 -0.468917 0.465072 0.532029 -0.092929 -0.980773 -0.198523 0.940611 -0.872799 0.306192 0.925901 -0.811213 0.301370 -0.276162 0.420270 0.108860 0.511582 0.604297 -0.133274 -0.467269 -0.160192 -0.720511 -0.152745 0.292398 -0.631886 -0.918394 -0.056124 0.219947 -0.821467 0.342570 0.738701 0.147374 0.353191 0.394513 -0.186438 -0.093295 0.973937 -0.430708 -0.249306 0.329997 0.122959 -0.800897 0.132054 -0.750725 -0.117832 -0.384136 -0.460311 -0.503403 -0.666372 0.151708 -0.444441 0.903989 0.559496 -0.861385 0.761834 0.303446 0.641652 -0.091403 0.740471 -0.473006 -0.337870 0.793756 0.073397 -0.593310 0.703116 -0.874020 0.342814 -0.225440 -0.153539 -0.762505 0.130650 -0.537400 0.174291 0.460189 -0.981079 0.302957 -0.231422 -0.873898 -0.410260 -0.872494 -0.288553 0.567370 -0.574877 -0.231605 0.084811 -0.884091 -0.892941 -0.942381 -0.029145 0.103793 0.217627 0.827204 -0.548570 -0.136937 -0.661245 -0.090854 -0.391339 -0.274270 0.052644 0.135594 0.524644 0.023896 0.941221 0.338420 -0.718741 0.089450 -0.413556 0.349773 -0.039277 0.254555 0.570544 -0.998413 -0.355144 -0.148839 -0.524705 0.126011 0.415876 -0.788629 0.882992 0.555040 -0.644337 -0.332865 0.375469 0.120579 0.546373 -0.449446 0.534898 -0.345195 -0.930052 0.193640 0.943175 0.989746 -0.991516 -0.071627 0.182409 0.957396 -0.556017 0.086886 -0.165380 -0.610279 0.458480 -0.998901 0.481918 -0.881161 -0.866085 0.003143 -0.293802 -0.023225 -0.447493 -0.575060 0.089511 0.795526 0.796197 0.598682 -0.786004 -0.592883 0.947020 -0.143773 -0.338420 0.643666 -0.913144 0.529710 -0.985656 0.337077 -0.702017 0.951109 -0.145665 -0.680532 0.662343 0.452498 -0.236488 -0.577136 -0.738151 -0.634144 -0.676077 -0.520737 0.178747 -0.976745 0.117710 -0.679312 -0.505112 -0.243263 0.726798 -0.220801 0.292398 0.898373 0.733207 0.686880 0.653249 0.780084 0.718986 0.875668 -0.340556 0.733940 0.266213 0.177587 -0.606861 -0.908078 -0.043123 -0.575243 0.936338 -0.813776 -0.627003 0.449141 0.371014 -0.651234 -0.903317 0.082797 0.779168 0.911618 0.709891 0.157811 0.242897 0.206702 0.794671 -0.493942 -0.155797 0.566210 0.933042 -0.040254 -0.334880 0.322062 -0.292947 0.350810 0.787774 0.806330 0.698721 0.511277 -0.705985 0.350993 0.490097 -0.726798 0.266030 0.288186 0.663198 0.468612 -0.214270 0.949828 -0.199927 0.929563 0.935240 -0.331950 -0.517258 0.488021 -0.203467 0.774834 0.293191 -0.023896 -0.548326 -0.397809 -0.186438 -0.774224 -0.017243 0.482162 0.625782 -0.930906 0.471664 0.746879 0.311930 -0.661916 -0.999512 0.728202 -0.546007 0.864803 0.651357 -0.241798 -0.365947 -0.518784 -0.493881 0.169042 -0.565905 0.019440 0.647023 -0.707389 0.436262 0.311441 0.155919 -0.538926 -0.777581 -0.810724 -0.885128 0.006317 -0.625294 0.485031 -0.394024 -0.739555 -0.524888 -0.969420 0.711234 0.555528 -0.894284 0.658132 0.512680 0.223548 0.848567 0.199561 0.092318 -0.403546 0.285562 -0.512986 -0.467757 -0.993591 -0.001129 -0.647511 -0.085604 -0.214576 -0.429609 -0.371990 -0.679128 0.265542 -0.417707 -0.854366 0.833735 -0.221351 -0.383465 -0.262673 0.534898 0.656972 0.255226 0.235206 -0.493515 0.232398 -0.919797 0.471297 -0.169469 0.837092 0.673757 -0.722526 0.589038 -0.197119 0.617786 0.486007 -0.136021 -0.538011 -0.505783 0.928770 0.737541 -0.853633 0.885311 0.437788 -0.708487 -0.811945 -0.627125 -0.154820 0.608203 0.919187 0.539109 0.982910 0.769524 0.671621 0.965941 0.683035 0.857418 -0.222571 0.235450 0.777581 0.954039 0.568712 0.929685 0.098605 0.141331 0.377483 0.630604 0.478133 0.501389 -0.464278 -0.079745 0.748161 -0.883786 -0.624500 0.380779 0.740715 0.067904 0.228858 0.594104 -0.712210 0.438398 -0.572192 0.142247 0.221595 0.309732 -0.695608 -0.392743 0.374004 0.764031 -0.809381 0.571276 -0.422956 -0.116855 -0.581469 -0.383831 0.662893 0.749321 -0.679800 0.324076 -0.536607 -0.555528 -0.772393 -0.723014 0.810663 -0.949400 0.472823 0.056917 0.536790 -0.350139 -0.612232 -0.754082 -0.526353 0.324198 -0.695364 0.426069 -0.546556 -0.844417 0.555406 0.179357 -0.691885 -0.773797 0.472030 0.087802 0.869747 0.618030 -0.613453 0.733390 0.970336 0.413007 0.631153 -0.301737 -0.558214 0.693228 0.537706 -0.435652 -0.883663 0.540757 0.438276 -0.086215 -0.173986 0.037507 0.664907 -0.671499 0.402692 0.265664 0.549669 -0.609424 0.678518 -0.692801 0.424543 0.682058 -0.514573 0.244118 -0.378460 0.784967 0.655568 -0.841548 0.472762 0.281289 -0.979186 -0.867733 0.310221 0.753105 0.413434 0.247597 -0.534165 0.782403 -0.334758 -0.413556 -0.728141 -0.048738 0.608386 -0.769158 0.060152 0.841731 0.074862 0.262856 -0.837275 -0.964293 -0.103305 0.764458 0.911802 -0.884579 0.905942 -0.182287 0.639210 0.662770 0.934568 -0.495407 0.677114 0.259804 0.814631 0.907285 0.357402 -0.511460 0.378216 0.107700 0.012238 0.931150 0.457320 0.187841 0.973632 0.169408 0.883969 -0.770196 -0.426435 -0.214454 0.490219 0.315653 -0.855953 -0.638478 -0.892026 -0.472701 
0.707816 0.449934 0.832026 0.375408 -0.159948 0.474044 0.263771 0.183874 0.447310 0.755364 0.547472 -0.748589 0.533372 0.547655 0.186865 -0.668020 -0.897824 0.104953 0.686026 -0.820551 0.157628 0.681143 0.548814 0.547838 0.703665 0.530076 -0.721000 0.190893 0.744194 0.905759 -0.619312 -0.137425 -0.717032 0.061922 0.357707 0.316813 0.324137 -0.747368 0.713919 -0.692495 0.871456 0.731864 -0.046724 -0.411420 0.928831 -0.246742 0.579699 0.913938 -0.499863 0.570971 0.097018 0.037385 0.589465 0.438765 -0.990844 0.713004 -0.799493 -0.389447 0.820185 -0.305460 -0.662709 -0.659658 0.033784 0.736015 0.003693 -0.118076 0.153966 0.591235 -0.796381 0.489303 -0.315409 -0.985839 -0.058992 -0.583666 0.129612 0.758782 0.219703 -0.083102 -0.007050 -0.421186 -0.956359 0.244972 0.778497 0.228309 0.416730 -0.345622 0.990173 0.461165 -0.657155 0.399091 0.131748 -0.968810 -0.174047 -0.267006 0.707327 -0.307596 0.869991 -0.090060 0.220679 -0.801386 0.478744 0.183935 -0.824274 -0.696158 -0.343913 0.808893 -0.923521 0.761956 0.406171 -0.961486 0.426801 -0.673269 -0.267373 -0.873043 0.730522 -0.247780 -0.360454 0.328043 0.491562 -0.207678 -0.869259 0.895627 -0.786126 0.200903 0.210181 0.083651 -0.598682 0.731864 -0.118320 0.145970 0.557970 0.139073 0.149266 0.336589 -0.812555 0.176550 0.016755 0.909360 0.793878 -0.401898 -0.511948 -0.881832 -0.118931 0.157689 -0.432844 -0.783013 -0.047029 0.609180 0.257851 0.459700 -0.486496 0.706534 0.564135 -0.899899 0.066500 -0.796442 0.489853 0.392254 0.115940 -0.145726 -0.961058 0.590014 -0.834346 -0.587512 0.215308 0.947264 -0.280374 -0.367779 -0.977172 -0.282144 -0.718253 -0.732719 -0.534471 0.155858 0.355937 0.071627 0.547166 0.515061 0.446028 0.799127 0.271706 0.049348 0.055940 -0.796319 -0.356975 -0.987365 0.689688 0.039216 0.665090 0.658925 0.851009 -0.940306 0.341716 -0.757988 0.043916 -0.981079 0.676931 0.015900 0.772393 -0.329081 0.674551 -0.765618 0.540147 -0.230567 0.338481 0.151524 -0.148778 -0.931455 0.672658 -0.978942 0.209510 0.322062 -0.319010 -0.903012 0.118870 -0.716117 0.367412 0.633229 -0.916746 0.707938 0.735771 0.883602 -0.393414 0.348186 -0.209998 0.102084 -0.807306 0.958434 -0.466048 -0.457442 0.345561 0.292642 0.971679 -0.541063 0.569079 -0.895383 0.106906 -0.894833 0.367107 -0.851497 -0.056307 0.735160 -0.756462 -0.822016 0.485885 -0.397320 -0.297647 0.947142 0.737297 -0.038240 -0.752617 -0.790399 0.702017 -0.933775 0.382672 -0.280374 -0.616260 -0.829890 0.611988 -0.769158 0.786615 -0.472762 0.439314 -0.502731 -0.085665 0.391522 -0.631581 -0.727165 0.770928 -0.983154 -0.096591 0.311441 0.360210 -0.342814 -0.451949 -0.633045 0.686209 -0.433699 0.806330 0.193274 0.752739 0.998352 -0.817927 -0.455672 0.563707 -0.793085 -0.820734 -0.825983 -0.876949 0.446211 0.301798 -0.163671 0.434675 -0.030061 -0.946532 -0.715018 -0.497543 0.032075 0.938414 0.274087 0.330363 -0.113437 0.460250 0.557421 -0.077731 -0.212806 -0.876949 0.888974 0.282022 0.988037 -0.569201 -0.977538 0.413617 -0.257118 0.887265 -0.287942 0.320963 -0.694388 -0.003632 0.711539 -0.992187 -0.069735 0.262062 0.774834 0.478317 0.870663 0.188208 -0.344279 -0.263833 0.380657 -0.721244 0.108310 0.785394 -0.285745 0.037629 -0.113620 0.629810 -0.874752 -0.031343 -0.256081 -0.726615 -0.132298 -0.424238 -0.565294 -0.279946 0.195471 0.362957 -0.287210 -0.026337 -0.637684 0.834040 0.332011 -0.961913 -0.377667 0.492904 0.046297 0.917417 0.229347 -0.156529 0.609485 0.615345 -0.562792 0.389691 0.775567 0.135838 0.499985 0.635487 0.298379 0.482894 -0.328654 0.084689 -0.068087 -0.339763 0.205420 -0.758721 -0.570055 0.671987 0.356059 -0.390912 -0.453475 -0.478133 -0.622974 -0.307901 0.035493 -0.786065 -0.477584 0.994201 -0.349223 -0.247963 0.046052 0.019196 0.146214 0.139988 -0.798212 0.271157 0.275796 0.381878 0.243690 0.253883 -0.206641 -0.518601 -0.574572 -0.528733 -0.547105 -0.557360 0.001129 0.427290 -0.991821 -0.730583 0.224647 0.625843 -0.786737 0.965697 -0.650258 0.570727 -0.178014 -0.464766 -0.369488 -0.233985 -0.411725 0.982177 0.320780 0.715506 0.265969 0.310221 -0.325602 0.923093 0.609058 -0.476669 0.945372 0.892758 0.371380 -0.374493 0.387555 0.128330 0.306925 0.620533 -0.745170 -0.866207 0.169469 -0.487655 -0.198828 -0.587024 0.713065 0.304910 -0.719535 -0.530137 -0.308512 0.002106 -0.053377 0.808344 -0.141209 0.607776 -0.946532 -0.067782 0.968749 -0.874142 0.855037 0.345561 -0.224708 -0.439619 0.605090 0.552171 0.032380 0.915098 0.557665 0.055940 0.493942 -0.806085 -0.033418 -0.639210 0.913755 -0.599170 -0.914243 -0.029267 0.045808 -0.460311 -0.830805 0.389508 -0.355998 0.614429 0.470748 0.121128 0.462264 0.628956 0.244240 -0.330485 0.254494 0.587146 0.743645 0.538499 -0.225440 0.492904 -0.777215 -0.767998 0.776421 -0.649892 -0.064241 -0.746025 0.013886 -0.837214 0.136326 -0.891720 -0.759026 0.934812 0.078402 0.298929 -0.788446 0.669973 -0.984069 -0.670339 -0.320475 -0.627735 -0.797174 -0.295511 -0.601245 -0.954466 -0.107028 -0.072726 0.123264 0.693838 -0.659780 -0.498032 0.606861 0.320902 0.798578 0.932493 0.603442 0.930784 0.521897 -0.277383 0.866939 0.527268 -0.235939 0.376385 -0.848750 0.114292 0.779046 0.397626 0.210364 -0.304239 0.820734 0.290323 -0.201941 0.275613 0.142979 -0.441694 0.668325 -0.142247 -0.000275 0.705618 0.575060 -0.553941 0.644887 -0.764092 0.272134 -0.955565 -0.667714 -0.346660 -0.486557 -0.343181 0.316019 -0.538316 -0.947081 -0.712882 0.849849 -0.835139 0.644581 0.939268 -0.812372 0.266884 -0.957884 0.617054 0.583483 -0.728507 -0.000397 -0.675527 -0.708975 -0.317301 0.270852 -0.934629 0.564440 0.004364 -0.390179 0.843806 0.657521 -0.259560 0.770440 0.663503 0.824091 -0.605274 -0.493515 -0.471541 -0.681875 0.471297 0.572008 -0.557482 -0.606433 -0.526048 -0.279153 -0.590320 -0.695730 -0.093417 -0.293069 -0.566149 0.304239 0.273171 0.284158 0.518845 0.647206 0.077548 0.206397 0.668630 -0.412824 -0.176366 -0.772393 0.887082 -0.621876 -0.984619 0.101718 -0.821955 -0.726188 0.156713 0.582568 0.545579 -0.471725 0.751457 -0.575976 0.993530 -0.604663 -0.696524 0.380169 -0.474288 -0.871090 -0.683157 0.204749 0.146153 -0.016999 -0.704642 0.651723 -0.141331 0.211341 0.742973 0.474960 0.667287 -0.932066 0.163488 -0.571581 -0.424238 0.806818 -0.939146 0.266030 0.588122 0.681631 -0.060884 0.741630 0.708243 0.946471 0.302042 -0.390912 -0.060091 0.855159 0.653615 0.622486 -0.712821 0.661611 0.497604 0.535569 0.753960 -0.380230 0.338054 -0.897763 -0.655934 -0.016511 -0.321207 -0.923521 -0.938536 -0.993286 -0.976257 0.212256 0.910092 0.943480 -0.123081 -0.736686 0.893735 -0.952635 0.742119 -0.016327 0.016327 -0.427412 -0.876827 -0.872860 0.281899 -0.227088 -0.475875 0.447798 0.694266 -0.097751 -0.551134 0.699393 -0.742729 -0.785455 -0.598804 -0.364177 0.974975 -0.036348 0.885250 0.011078 -0.148839 -0.596484 0.404645 -0.420942 0.889828 -0.211890 -0.536607 -0.906369 0.094760 0.371197 0.565538 0.308756 0.470016 -0.593249 -0.785211 -0.021760 0.019318 0.148717 -0.084750 -0.143895 -0.253273 0.850948 0.170629 0.696219 -0.343913 0.767327 0.484970 0.252419 0.751396 0.151830 0.362102 -0.721366 -0.963683 0.258339 0.305948 -0.471114 -0.484970 -0.659291 -0.179540 -0.243019 0.191382 0.653005 -0.590503 -0.283181 0.069124 0.448958 0.577013 0.162328 -0.847713 -0.017487 -0.173193 0.847468 0.444807 -0.492416 0.662954 0.526048 -0.049532 0.278115 -0.410871 0.952025 0.673269 0.548021 0.109470 0.879269 0.617115 -0.428877 0.727836 0.061739 0.785882 -0.398602 0.947996 -0.746757 -0.816584 -0.107212 -0.726066 0.207923 
-0.829646 -0.996948 -0.610218 -0.171484 -0.897885 0.528977 -0.787835 -0.709586 -0.812738 0.861507 -0.942930 0.553148 -0.586047 0.238990 -0.587329 0.354961 0.770623 -0.100375 -0.232643 0.434126 -0.754631 0.081881 0.609363 -0.471114 -0.173376 0.023835 -0.573046 -0.622364 0.502609 -0.036164 0.708426 0.718558 0.261635 -0.859798 -0.057955 -0.710074 -0.908078 -0.208777 -0.383892 -0.169897 -0.018159 -0.844905 -0.781121 0.077364 0.919675 -0.529771 -0.761284 0.769890 0.893551 -0.025178 -0.836177 -0.353984 -0.108127 0.907163 -0.517502 -0.555956 0.903012 -0.494552 -0.316996 -0.097690 -0.084994 0.008087 0.253700 -0.241066 -0.083651 -0.346660 0.682791 0.752373 0.895260 0.679495 -0.541490 -0.379254 -0.160070 0.324808 0.069246 0.102512 0.738762 0.827509 -0.996765 0.935789 0.580004 -0.574084 -0.251198 -0.141087 -0.648122 0.358379 0.794183 -0.389813 0.042756 0.863094 -0.372417 -0.072054 0.640919 -0.821650 0.737480 -0.449690 0.134495 0.542467 -0.388104 0.215735 0.511948 -0.806330 0.739372 0.662465 0.761528 0.370403 -0.391949 0.628651 0.871395 0.310709 0.706229 0.852718 -0.170080 0.253029 -0.477828 -0.927244 -0.374615 0.435591 0.544237 0.027375 -0.753960 0.096652 -0.739372 -0.545457 0.680227 -0.525437 0.159642 0.092746 0.916196 -0.192419 0.729606 -0.319864 -0.057833 -0.666066 -0.541307 0.955077 0.746513 -0.708060 -0.164708 -0.344279 -0.682546 -0.080111 0.347697 0.520554 0.643300 0.456099 0.484115 -0.712333 0.712333 -0.861263 0.732841 0.695486 0.512864 -0.793817 0.582141 0.482162 0.033052 0.896786 0.520371 -0.613941 0.261330 -0.551378 0.035737 -0.854549 -0.814142 -0.899899 -0.383465 0.498642 -0.204993 -0.910520 0.751091 -0.816218 0.076998 -0.344890 -0.072359 -0.060640 -0.979858 0.035127 0.634510 0.503525 0.612781 0.467940 -0.640126 -0.385479 -0.156957 0.191809 -0.407880 -0.989319 0.699393 -0.555101 -0.180456 -0.569628 0.169897 -0.534349 -0.469710 0.611805 0.243019 0.492294 -0.787225 -0.706839 -0.092990 -0.236976 0.355327 -0.787164 -0.849971 -0.483749 -0.554003 -0.890866 0.960570 0.990173 -0.026704 0.720328 -0.673330 0.423078 0.425398 0.784600 -0.763237 -0.946715 0.290628 -0.959777 0.679128 -0.880978 0.057161 0.225684 0.642018 -0.141331 -0.786615 0.079073 -0.886349 -0.489608 0.247597 -0.661306 -0.917600 -0.687490 0.648000 -0.257057 0.536607 -0.496628 0.902951 0.029939 0.464339 -0.678823 0.500656 -0.061922 0.854060 -0.995788 -0.070589 0.205603 0.694021 -0.209204 0.677541 0.570849 -0.027619 -0.080844 -0.766717 -0.228065 -0.322428 0.627674 -0.915036 -0.452681 -0.202185 0.154515 0.720878 0.635243 -0.678640 -0.261940 -0.370830 0.773980 0.236549 -0.383526 0.298318 0.701712 -0.468368 -0.971862 0.216468 0.156835 -0.805109 0.211341 -0.128086 -0.122410 0.214637 0.404279 0.752983 -0.397687 0.579150 -0.154698 -0.652089 0.069185 -0.723441 -0.227393 -0.855037 -0.983459 0.295389 0.424604 0.632557 -0.817255 0.623829 -0.960509 -0.701163 0.305948 0.250038 -0.144444 -0.367901 -0.875546 0.162450 0.111118 -0.879330 -0.623463 0.349284 0.044404 0.252846 -0.199377 -0.201209 0.893735 0.516892 0.134800 0.499313 0.897397 0.400983 -0.882565 -0.560900 -0.706412 -0.606494 0.486862 0.606494 0.320719 -0.017243 0.981262 0.989685 -0.783074 -0.343059 0.338908 0.577013 0.220618 0.904477 -0.701834 0.356670 0.570055 -0.786554 -0.402692 0.317057 0.503464 -0.927732 -0.025422 -0.553575 -0.740898 -0.030793 0.168249 -0.267006 -0.924619 0.392560 0.916684 0.165136 -0.809503 -0.169469 -0.041963 0.731071 -0.157262 0.771477 0.030671 0.419050 0.270363 0.703604 0.872860 -0.782647 0.711722 0.115268 -0.777154 0.114414 0.404950 0.494736 0.819025 -0.901669 -0.411542 0.330241 0.399518 -0.842524 -0.499435 -0.889950 -0.297342 0.280190 0.379437 -0.677419 -0.533189 -0.545457 -0.536607 0.455977 -0.569811 0.669057 0.990783 0.998596 0.331095 0.911924 0.199744 0.438704 -0.092257 0.171300 -0.671316 -0.735527 0.898556 -0.564379 -0.384198 0.964415 -0.958373 0.693167 -0.700552 0.026582 -0.924619 0.932127 -0.382061 -0.060579 0.738090 0.140782 0.809442 -0.808954 0.767998 -0.692495 0.112278 -0.730094 0.903378 0.420576 -0.235267 0.664235 -0.117527 0.468184 -0.994934 0.862239 -0.556322 -0.561327 0.071688 0.352275 0.325175 0.320292 0.202734 0.622608 0.265297 -0.898679 -0.363506 0.161473 0.002289 0.770196 -0.388714 0.457198 -0.725517 -0.685110 0.365398 -0.001923 0.820124 -0.276040 -0.862911 0.272378 0.377483 -0.014435 0.164708 -0.231666 0.684866 -0.912046 0.686453 -0.025727 -0.519456 -0.980529 0.940672 -0.621509 -0.497238 0.768487 0.165563 -0.530747 0.489914 0.323099 0.599475 0.734855 -0.819880 0.671682 -0.519395 0.663503 -0.688162 -0.197485 -0.952635 -0.256447 -0.376812 0.703848 0.537950 -0.536790 -0.147435 -0.636036 0.190649 0.310892 0.738212 0.771294 -0.756218 -0.225196 0.018403 0.913877 -0.064425 0.343181 0.431440 0.780145 -0.495651 -0.495651 -0.284524 0.358318 0.188391 -0.253395 0.609058 0.636708 -0.774102 0.558275 0.850215 -0.396466 0.855342 0.427473 -0.822687 0.247230 0.314798 0.842647 -0.671316 0.555956 -0.157384 0.291971 0.042573 -0.482040 0.677114 0.263771 -0.942808 -0.878353 -0.943541 -0.753655 -0.889035 0.355205 0.219153 0.728019 -0.057894 -0.793085 0.403302 -0.803095 0.288858 0.665212 0.847224 0.141453 -0.110508 0.718131 -0.210791 0.049898 -0.517624 0.354106 0.467574 0.410504 0.805780 -0.438643 -0.879513 -0.288491 0.597888 -0.671804 0.986389 -0.558763 0.597034 -0.357097 0.303385 0.088046 -0.458480 -0.506211 0.309915 -0.859920 -0.830378 0.869137 -0.755852 -0.914304 0.219642 0.757134 0.344523 -0.586840 0.429792 -0.853877 -0.150914 0.610828 0.538438 -0.975646 0.996338 0.166784 0.283792 0.380230 0.024384 0.569506 0.404157 0.201941 0.171606 -0.692801 0.637806 0.477706 -0.323710 0.868160 -0.276955 0.195898 -0.223365 0.740654 -0.601856 -0.655263 0.711051 -0.587085 0.401410 0.912595 -0.282266 0.373394 0.471053 0.887631 -0.965087 0.110141 0.345439 0.258217 -0.098972 0.111606 -0.237220 -0.987426 0.554247 0.866024 -0.538621 0.139073 0.232826 -0.138401 -0.820429 -0.374065 -0.824885 -0.413251 -0.344462 0.461409 0.619434 -0.470321 0.627674 0.633839 0.803949 0.178686 0.834162 -0.868526 0.966979 -0.978027 0.013337 -0.057405 -0.653249 0.548021 0.903439 0.055513 -0.818293 0.244911 -0.757256 -0.541551 0.710074 0.601001 -0.230384 -0.860286 -0.830012 -0.895505 0.222327 -0.912412 0.799982 0.243873 -0.661000 0.290445 0.838130 -0.492843 0.858150 0.736442 -0.477279 -0.617115 -0.482162 -0.586169 0.092135 -0.640858 -0.943480 0.311075 0.784661 -0.075716 0.212378 0.416242 0.838435 0.566637 0.723746 -0.282266 0.491867 -0.225623 -0.671194 -0.796136 0.983276 -0.964110 -0.233985 0.862850 0.550768 0.839412 0.773553 -0.317057 0.432783 0.673208 0.089572 -0.347514 0.867550 -0.974487 0.452620 -0.240272 -0.906735 -0.615223 -0.399274 -0.007050 -0.651601 0.239113 0.272378 -0.659536 0.871151 -0.923154 0.205664 -0.209449 -0.100314 0.386334 0.139073 0.331462 -0.327616 -0.344279 -0.189306 0.951537 0.427534 -0.626576 -0.041047 0.638905 -0.596606 -0.972350 0.322062 -0.618030 0.838313 -0.893307 -0.361736 0.169103 -0.029572 -0.901181 -0.354106 0.988403 -0.961852 -0.507614 -0.916746 0.828242 -0.720267 -0.224403 -0.311380 -0.323160 0.933470 0.436750 0.200232 0.522568 -0.762505 0.964110 0.356365 -0.646413 0.430280 -0.154027 0.895383 -0.841670 -0.249977 0.570605 -0.444563 -0.074984 -0.564989 -0.373638 -0.925108 0.641896 0.723624 0.501450 -0.807978 -0.702750 -0.146092 -0.315897 0.645192 0.879391 0.064364 0.662770 -0.827509 -0.623463 -0.406842 -0.074435 -0.487655 -0.222877 -0.321390 0.960936 -0.597034 0.069246 0.559069 0.256935 -0.417280 
0.120334 -0.664724 0.467086 -0.165319 -0.098483 -0.474471 0.209204 0.349651 -0.511704 0.561449 0.149510 0.727836 0.915952 -0.271889 0.823176 0.754387 -0.780572 -0.689199 -0.234657 -0.785577 0.434065 0.594653 -0.488815 -0.106723 -0.405133 -0.135289 -0.404157 -0.424116 0.737175 0.406232 0.554491 0.047578 0.895993 0.504379 -0.077792 0.093478 0.106479 -0.555773 0.234291 -0.501389 -0.596179 -0.488998 -0.974242 -0.951720 0.823298 -0.010102 0.831904 0.527635 -0.600146 -0.834101 -0.812250 0.721732 -0.831233 0.324381 0.628590 -0.584216 -0.834834 -0.249611 0.689444 -0.605029 -0.575732 0.729057 -0.094516 0.444441 0.981201 -0.454451 -0.188086 -0.650746 -0.129002 -0.514939 0.943968 -0.105258 -0.871090 0.832759 0.836665 0.865963 0.790216 0.873714 0.025178 0.048006 -0.110141 -0.106845 0.044771 0.226112 0.463118 -0.823786 -0.569506 -0.814570 -0.454939 -0.991943 -0.282449 -0.288919 -0.829035 0.673879 -0.558947 -0.411725 0.375958 0.458785 0.136204 -0.397809 -0.804926 -0.352092 0.338176 -0.462142 0.663625 0.526475 -0.417951 0.180578 0.816706 0.379620 0.403058 -0.684622 0.689444 -0.507614 0.336344 -0.272500 0.316996 -0.849910 -0.082980 -0.797906 0.734550 -0.362102 0.680288 0.524339 -0.022736 0.240822 -0.838801 -0.520737 -0.919736 -0.755913 0.895077 0.852168 0.078768 -0.067110 0.416974 0.428144 0.007843 0.592334 -0.737968 0.992370 0.902768 0.507553 -0.034516 0.329936 -0.201453 -0.036225 0.062471 -0.773980 0.730461 0.246132 0.088107 -0.534104 0.733573 -0.360271 -0.422468 -0.165441 -0.156896 -0.570177 -0.934080 0.117283 -0.905820 -0.098544 0.088534 -0.900815 0.522019 0.339885 -0.819697 0.565416 -0.838374 -0.969848 -0.123386 -0.698904 -0.951659 -0.742424 0.712577 -0.908567 -0.782769 -0.692862 -0.776849 0.721671 -0.296548 0.464156 -0.056246 -0.023286 -0.457869 -0.986328 0.409406 -0.358074 0.768548 0.240883 -0.844783 -0.497604 0.417707 0.430952 -0.283486 0.343303 0.524827 0.869015 0.628285 -0.050203 0.125034 -0.159825 -0.574267 -0.893002 -0.746452 0.629688 0.644154 -0.399884 0.945555 -0.477340 -0.181555 0.214270 -0.763970 -0.195715 -0.516037 0.734672 -0.839717 -0.240333 -0.824213 -0.053682 0.753533 0.674062 -0.570910 -0.365459 -0.949278 0.832453 -0.220923 0.584521 0.087191 -0.479904 0.760796 0.581225 0.898007 -0.977844 -0.090548 0.409955 -0.481674 0.623890 -0.239723 -0.144200 0.983398 0.610218 -0.151708 -0.295999 -0.671804 0.266457 0.708792 -0.260414 -0.411969 -0.122227 -0.123203 0.747856 -0.201941 0.729240 -0.112461 0.513840 0.993408 -0.893979 0.276223 -0.177282 -0.790887 0.293374 -0.422163 0.459761 -0.519517 0.576342 -0.672292 -0.790033 -0.157323 -0.759941 0.061007 -0.141392 -0.669240 0.569872 -0.687307 -0.809259 -0.020051 -0.149266 -0.381878 0.991699 0.825373 -0.632130 0.512375 0.046358 -0.097812 0.406537 0.530564 0.140110 0.245582 -0.748344 -0.792108 0.058077 -0.109348 -0.811396 -0.920530 -0.414716 -0.127415 0.502487 -0.319437 -0.492965 0.226600 0.478439 -0.453719 -0.391583 -0.012238 -0.598498 0.211707 0.674673 -0.808771 0.557054 0.212073 0.490768 0.872250 0.230140 -0.917539 -0.157994 -0.934141 -0.294168 -0.641896 0.513535 0.807367 -0.730583 0.574206 -0.709586 0.131748 0.206030 -0.734306 -0.042024 0.074252 0.800775 0.968017 -0.698782 0.670095 0.338786 0.216163 -0.894650 0.954344 -0.894711 0.545274 0.155553 0.962157 0.385479 0.490585 0.236976 -0.271340 0.464400 -0.412824 0.134678 -0.710868 0.627308 0.370281 -0.366070 0.678701 -0.840815 0.375042 -0.480087 -0.067598 -0.654592 0.136509 -0.422346 0.085482 -0.528977 -0.810053 0.592456 -0.826899 0.821284 0.070589 0.349345 0.230445 -0.318888 0.313395 -0.366436 -0.707450 -0.664113 0.453658 0.230201 -0.605335 0.070772 0.026460 0.924497 0.572008 -0.829279 -0.433027 -0.498520 -0.140416 0.921140 0.610462 0.746452 -0.707389 0.606983 -0.308145 0.444502 -0.093722 0.513474 0.346538 -0.619251 -0.264260 -0.074252 -0.890439 -0.659597 -0.183874 -0.870968 -0.483932 -0.891415 0.182592 -0.591540 0.101291 0.470565 -0.129734 -0.950865 0.400311 0.211280 0.914426 -0.663686 0.948302 0.116123 0.350078 0.555040 -0.719596 0.970092 0.212439 -0.009491 -0.068209 0.558336 -0.463363 -0.072115 0.437666 -0.333903 0.357952 -0.347636 -0.666860 0.078524 -0.288614 -0.550951 0.153356 0.580798 -0.367840 0.603076 -0.566515 0.957945 -0.844600 -0.600330 0.708731 -0.004791 0.316385 -0.876095 0.514145 -0.522263 0.150121 0.061068 0.384991 0.190710 0.691824 -0.503830 0.856319 -0.080721 0.976623 -0.285562 -0.536668 -0.551439 -0.960326 0.001007 0.741325 0.563768 -0.083773 0.641102 0.225196 0.049959 -0.358684 0.919797 0.450301 -0.307596 -0.749870 -0.877804 0.951720 0.276162 0.777947 0.533677 0.264565 -0.413495 -0.740287 -0.560900 -0.075900 0.408490 0.730766 -0.876156 0.465377 0.527268 0.226112 -0.126988 -0.576403 0.728080 -0.218970 0.971801 -0.666005 0.796014 0.430647 0.705252 -0.268410 -0.483749 0.210059 0.358501 -0.848384 0.673940 0.154454 0.216895 -0.870785 -0.945799 0.299051 -0.434614 0.199561 0.442305 -0.321085 0.689322 -0.102206 -0.376751 0.329264 0.873714 0.759026 0.382366 -0.714835 0.403729 0.318461 -0.495346 0.581957 0.564562 -0.888730 0.775384 -0.745415 -0.358623 0.672597 0.979614 -0.661672 0.919370 -0.462447 -0.097446 -0.131687 0.683584 -0.758660 0.329325 0.879757 0.219275 0.319132 0.045198 -0.592334 -0.188513 0.306070 -0.164830 -0.512680 0.745537 -0.262795 -0.515549 0.153844 -0.693594 0.147862 -0.221717 -0.557604 0.779473 0.073153 0.501755 0.388165 -0.550340 -0.951903 0.440046 -0.973815 0.602222 -0.391949 -0.621815 0.391766 0.522385 -0.711966 0.101535 0.520005 0.495163 0.623280 0.395123 0.446028 0.805841 -0.851131 -0.955931 0.204993 0.739494 -0.600024 -0.166295 0.832087 0.581286 0.911863 -0.450972 0.362468 -0.383648 0.219581 -0.024751 -0.168737 0.129978 0.858272 -0.102512 -0.726371 -0.592822 -0.636891 -0.899045 -0.275246 -0.266823 -0.730705 0.370769 -0.780206 0.393170 -0.888058 -0.507859 0.793939 -0.327860 0.426313 -0.749870 0.482223 0.855464 -0.252663 -0.570055 -0.680166 0.228126 0.610401 0.816828 -0.657949 -0.924619 -0.449446 -0.804254 -0.416059 -0.317606 0.102939 -0.647938 0.080660 -0.665822 0.802789 -0.929258 -0.132664 0.316141 -0.814875 -0.862911 0.979247 -0.086825 -0.214759 -0.663808 0.451399 0.410627 0.138279 0.453230 0.319010 -0.906491 0.779290 0.273354 -0.382794 0.247108 -0.756523 -0.418317 0.381268 -0.843562 0.066134 0.163427 -0.353801 0.106845 0.782220 0.803705 -0.552782 0.383343 -0.073031 -0.712333 0.819514 0.271096 -0.964476 0.400555 -0.201819 -0.944700 0.643117 -0.072604 -0.581591 -0.978942 0.284829 0.653432 -0.284646 -0.546373 0.495773 0.363750 -0.275857 0.638112 0.811213 -0.156407 -0.520005 -0.140355 -0.233741 0.878109 0.018036 -0.596606 0.896054 0.252419 -0.626637 0.554552 0.735771 -0.248390 0.581225 -0.401837 0.820551 0.160985 -0.323283 -0.180517 -0.314493 -0.734428 -0.304971 -0.496323 0.865963 -0.149388 0.671316 -0.064119 0.896847 -0.298746 -0.359355 -0.598804 -0.686575 -0.397382 0.638356 -0.815180 0.650990 -0.660146 0.699454 -0.428022 0.444441 -0.301859 -0.140904 -0.152257 -0.770928 0.462691 -0.847530 0.297281 0.540086 0.418561 0.614856 0.205786 0.912534 -0.649098 -0.718802 -0.141697 -0.118381 0.044954 -0.813227 0.540147 -0.017548 0.285806 -0.633290 0.536363 0.750298 0.858699 -0.143773 -0.867855 0.720267 -0.451338 -0.309610 0.612720 -0.572619 -0.859004 0.904416 0.263100 -0.593005 -0.579272 0.533372 0.368511 0.194189 -0.826899 0.612537 0.214087 0.324076 0.183264 0.176977 0.085055 -0.668142 -0.763726 -0.738151 -0.733512 -0.247353 0.117466 0.902402 0.043611 -0.878353 -0.388165 -0.866329 -0.298502 -0.025910 -0.495407 
-0.193091 0.351238 -0.592334 -0.418012 -0.953673 0.789361 -0.134007 0.647633 0.072115 0.893674 0.932859 0.326701 0.778680 0.808649 -0.997314 -0.736320 0.060579 -0.321268 -0.529771 -0.896847 -0.187719 -0.351299 0.729850 0.489669 0.928465 -0.137120 0.176122 -0.932310 -0.696524 0.465926 0.203650 -0.518235 -0.167943 0.602283 0.206824 -0.623463 0.408551 0.416486 0.580309 -0.603626 -0.072420 -0.946959 0.718558 -0.814142 0.283670 0.656667 -0.983947 -0.610401 0.371380 0.371685 0.867550 -0.347942 0.085116 0.342692 0.667287 0.617847 0.319559 -0.285745 -0.190039 -0.068697 0.969176 0.630848 0.690176 0.237159 0.928526 0.237037 0.702261 -0.820185 0.092013 0.677358 0.240883 -0.596118 -0.645680 -0.903684 0.700552 0.553941 0.609973 -0.361492 0.475753 -0.725639 0.753410 -0.551683 0.961119 -0.790216 -0.320780 0.670522 0.551012 -0.995300 0.281961 0.449385 0.640126 0.303751 0.456099 0.929624 -0.377056 -0.248756 -0.903867 -0.744377 0.893979 0.991943 0.096774 -0.427961 0.847774 0.670278 0.352397 -0.976684 0.878842 0.430708 -0.242470 -0.245888 -0.618336 0.917905 -0.793268 0.908872 -0.249123 -0.223731 0.594653 0.632069 0.381024 -0.349528 0.815668 0.068331 0.666555 0.184912 -0.235694 -0.637928 -0.998047 0.024201 0.335185 -0.342021 0.781976 0.812860 0.422834 -0.899533 0.400922 -0.804682 0.921751 0.834223 -0.746635 0.816340 -0.273598 -0.996521 -0.266091 0.320231 -0.268593 0.753105 -0.762993 -0.648427 0.831355 0.227454 0.157323 0.554979 -0.079379 0.571032 -0.110752 -0.425092 0.893857 -0.071566 0.827387 -0.944151 0.645497 -0.555834 0.366253 0.642506 -0.929868 -0.737236 0.900388 0.979308 -0.937681 0.528794 -0.175756 -0.289346 0.516587 -0.613269 -0.467574 -0.518723 0.327372 0.981201 -0.580554 -0.064364 0.389325 -0.543443 -0.120090 -0.281777 -0.403119 -0.042512 0.308267 0.473678 -0.155370 0.628529 -0.900998 0.846431 0.027070 0.614124 -0.353191 0.481002 0.038789 0.058809 0.346110 0.021943 0.774285 0.107212 0.591418 -0.886166 0.128025 0.903745 0.777276 0.401227 0.994629 -0.407025 0.298196 -0.471480 -0.731437 0.319559 -0.451216 -0.859676 -0.155553 0.227821 -0.076449 0.881283 0.616749 -0.537584 -0.183020 -0.604358 0.479965 -0.832148 0.623707 0.328227 -0.671316 -0.511338 0.738151 0.323466 0.057466 -0.430647 -0.445173 -0.974242 0.560778 -0.445479 -0.531663 -0.920164 -0.266884 0.588672 -0.126804 0.130161 -0.530869 0.816279 -0.836055 0.821223 0.663320 -0.618152 0.735160 0.797601 -0.789911 0.430097 0.981262 0.703787 0.004120 -0.894650 -0.703177 0.184301 0.939940 -0.447737 0.076449 -0.116306 0.911985 0.915403 0.714591 -0.553453 -0.185217 -0.660939 -0.394269 -0.482650 0.542955 -0.031953 0.144505 -0.259377 0.991028 0.946776 0.725455 0.760918 0.053438 -0.580248 0.743034 0.222694 -0.375225 -0.468429 0.591784 0.770623 0.599597 0.426740 -0.333720 0.049104 0.872433 0.249733 0.361064 0.702811 -0.662282 0.145116 0.070589 0.376080 -0.109897 0.257485 -0.810602 -0.286416 -0.575976 -0.268715 -0.887936 0.359844 -0.165868 0.711112 0.233192 0.959349 0.014863 0.341411 -0.052828 -0.843379 -0.139256 0.766839 0.648610 -0.403729 0.266335 -0.868221 -0.267983 -0.077242 -0.873836 -0.419111 -0.408063 0.780633 -0.665212 -0.741325 -0.377117 -0.185583 0.786737 0.309610 0.219398 -0.331339 0.376446 -0.121738 0.775994 -0.012116 -0.001434 0.109165 -0.312784 -0.583422 0.547594 0.146886 0.347636 -0.400678 -0.082003 0.135899 -0.848323 -0.819330 -0.995666 -0.779351 -0.505966 -0.194861 -0.298746 -0.454085 -0.230873 0.117283 0.903195 0.256020 -0.628529 -0.238502 0.504624 -0.504440 0.695669 -0.617542 -0.599902 0.409101 -0.863887 0.624683 -0.515732 -0.858943 -0.912473 0.132603 -0.348430 0.836116 -0.055635 -0.449141 -0.203467 -0.361309 0.101108 -0.476058 0.813715 0.693411 0.952391 -0.303629 0.597644 0.144688 0.892636 0.712699 0.042817 -0.862850 -0.683645 0.217444 -0.956236 -0.184729 0.618213 0.855098 0.495102 -0.676382 0.192602 0.270302 0.291299 -0.193274 0.434187 -0.892575 -0.673147 0.409162 0.737419 -0.988891 -0.503647 -0.724662 -0.503220 0.625965 -0.305704 -0.450179 0.106967 -0.403668 -0.184729 -0.622730 0.962401 0.566942 0.753777 -0.097934 -0.542467 -0.817927 0.404279 -0.731193 -0.012970 0.086520 -0.338664 0.622059 -0.054659 0.924680 0.419599 0.106235 -0.272927 0.341044 -0.426557 0.865963 0.726737 -0.019745 -0.982543 -0.954283 -0.661245 0.486801 -0.353801 -0.209876 0.957884 -0.494858 -0.645802 -0.756401 -0.021638 -0.320109 -0.964049 0.550829 -0.205054 0.655629 0.586047 -0.143895 0.802179 -0.923338 0.898923 0.304178 0.394391 0.587817 -0.130833 0.039460 0.966308 -0.166540 0.391339 0.206580 -0.087680 0.458113 0.359905 0.949950 -0.372967 -0.893674 0.669424 -0.585864 -0.494980 -0.577319 -0.785577 -0.256203 -0.059297 0.051729 0.889523 -0.916746 0.328715 0.637867 -0.410932 -0.422773 -0.936460 -0.174291 0.207739 0.370159 -0.460311 -0.740226 0.640065 -0.393475 0.151769 -0.415387 -0.219520 0.430952 0.294229 0.444807 -0.476424 0.987976 0.361614 0.484787 0.763909 0.422040 -0.251503 -0.650929 -0.604053 0.877743 0.849361 -0.317728 0.314310 -0.500473 -0.941282 -0.871090 -0.586596 0.432112 0.771294 0.333476 -0.412152 0.819880 -0.618702 0.940550 0.732231 0.807367 -0.716483 -0.405377 -0.259072 -0.460860 -0.127598 -0.059786 0.508591 -0.840327 -0.457564 0.621937 -0.070345 0.813654 -0.311747 -0.715812 -0.101230 0.645497 0.704276 0.571642 -0.689627 -0.200354 -0.014924 0.128758 0.059053 0.420820 -0.074740 0.600085 -0.960753 -0.346599 -0.080782 -0.369915 0.145665 -0.358013 0.361614 -0.136631 0.272683 -0.468917 0.646901 0.944517 -0.685171 -0.534715 -0.830439 -0.482101 0.166723 0.589099 -0.675710 -0.771844 0.722892 -0.953063 -0.494552 0.719840 -0.122227 -0.016511 -0.892331 -0.362590 -0.474044 -0.456771 0.525559 0.625416 0.561998 0.870724 -0.846614 -0.671621 0.880428 0.110385 -0.614063 0.390973 -0.624317 0.406903 0.617664 -0.542528 -0.057588 -0.095370 -0.757012 -0.827387 -0.524949 -0.251747 0.656667 -0.819147 -0.131748 0.082247 -0.747063 0.126743 0.016449 0.051180 0.426618 -0.345195 -0.185827 -0.200476 0.572130 0.409589 0.155980 0.471847 -0.916135 0.035554 0.936460 0.212622 0.356609 -0.822748 -0.950011 0.166417 -0.215308 -0.520676 0.391278 0.477828 -0.237281 -0.413800 -0.145299 0.291299 -0.314737 -0.857601 -0.665090 -0.248634 -0.053255 0.792535 -0.273598 0.002594 -0.058199 0.181005 0.923704 -0.810480 0.064974 -0.047517 -0.178747 0.456709 -0.289346 -0.248573 0.313761 -0.051424 -0.726493 0.222449 -0.704398 0.809809 0.148045 -0.990112 0.661428 -0.815302 0.728751 0.758538 -0.694388 0.218055 0.410199 -0.887326 -0.877132 0.054231 -0.413190 0.717032 -0.992370 -0.162145 -0.346721 -0.783990 0.854488 -0.286599 -0.995911 -0.745781 -0.442183 0.825373 -0.966308 0.476180 -0.987671 -0.681631 0.136753 -0.473678 0.112522 0.336894 -0.292337 0.049348 0.752861 0.025483 0.141026 0.689627 -0.172155 -0.471358 0.831416 -0.908200 -0.767876 0.990967 0.173193 -0.099643 -0.139805 -0.443159 -0.438948 0.759819 -0.393475 -0.629017 -0.610462 0.314737 -0.634327 -0.422163 -0.946959 0.209632 -0.967772 0.321940 0.946287 -0.910947 -0.499313 0.747856 0.463607 0.597522 0.665578 1.000000 -0.000397 -0.620472 -0.578661 0.222999 0.948912 -0.920347 -0.337321 0.561388 -0.294168 0.342448 0.284036 -0.840327 -0.334880 0.812433 -0.820124 0.162450 -0.778741 -0.865963 -0.755181 0.714103 -0.231300 0.951964 0.373455 0.959349 -0.297952 0.910581 -0.539903 0.042512 0.415815 0.654530 0.399579 0.108310 0.304483 0.828242 0.086154 0.301187 0.762688 -0.923704 0.414533 0.765679 0.184790 0.043367 0.279092 0.646290 -0.034516 -0.626270 -0.425459 0.087619 0.499313 -0.287881 
